digraph Tree {
node [shape=box] ;
0 [label="X[3] <= 3.5\nmse = 0.01\nsamples = 11785\nvalue = 0.061"] ;
1 [label="X[4] <= 5.5\nmse = 0.009\nsamples = 9400\nvalue = 0.042"] ;
0 -> 1 [labeldistance=2.5, labelangle=45, headlabel="True"] ;
2 [label="X[2] <= 11.0\nmse = 0.003\nsamples = 2373\nvalue = 0.1"] ;
1 -> 2 ;
3 [label="X[1] <= 5.5\nmse = 0.001\nsamples = 1201\nvalue = 0.064"] ;
2 -> 3 ;
4 [label="X[2] <= 7.0\nmse = 0.0\nsamples = 875\nvalue = 0.077"] ;
3 -> 4 ;
5 [label="X[1] <= 1.5\nmse = 0.0\nsamples = 574\nvalue = 0.068"] ;
4 -> 5 ;
6 [label="X[2] <= 3.0\nmse = 0.001\nsamples = 112\nvalue = 0.049"] ;
5 -> 6 ;
7 [label="X[0] <= 1.5\nmse = 0.0\nsamples = 64\nvalue = 0.031"] ;
6 -> 7 ;
8 [label="X[4] <= 1.0\nmse = 0.0\nsamples = 5\nvalue = 0.012"] ;
7 -> 8 ;
9 [label="mse = 0.0\nsamples = 1\nvalue = 0.0"] ;
8 -> 9 ;
10 [label="X[4] <= 4.5\nmse = 0.0\nsamples = 4\nvalue = 0.019"] ;
8 -> 10 ;
11 [label="mse = 0.0\nsamples = 3\nvalue = 0.019"] ;
10 -> 11 ;
12 [label="mse = -0.0\nsamples = 1\nvalue = 0.02"] ;
10 -> 12 ;
13 [label="X[0] <= 4.5\nmse = 0.0\nsamples = 59\nvalue = 0.032"] ;
7 -> 13 ;
14 [label="X[4] <= 0.5\nmse = 0.0\nsamples = 13\nvalue = 0.035"] ;
13 -> 14 ;
15 [label="mse = 0.0\nsamples = 2\nvalue = 0.028"] ;
14 -> 15 ;
16 [label="mse = 0.0\nsamples = 11\nvalue = 0.036"] ;
14 -> 16 ;
17 [label="X[0] <= 6.5\nmse = 0.0\nsamples = 46\nvalue = 0.031"] ;
13 -> 17 ;
18 [label="mse = 0.0\nsamples = 9\nvalue = 0.027"] ;
17 -> 18 ;
19 [label="mse = 0.0\nsamples = 37\nvalue = 0.032"] ;
17 -> 19 ;
20 [label="X[0] <= 14.5\nmse = 0.0\nsamples = 48\nvalue = 0.072"] ;
6 -> 20 ;
21 [label="X[0] <= 1.5\nmse = 0.0\nsamples = 46\nvalue = 0.074"] ;
20 -> 21 ;
22 [label="X[4] <= 1.5\nmse = 0.0\nsamples = 3\nvalue = 0.057"] ;
21 -> 22 ;
23 [label="mse = 0.0\nsamples = 1\nvalue = 0.08"] ;
22 -> 23 ;
24 [label="mse = 0.0\nsamples = 2\nvalue = 0.051"] ;
22 -> 24 ;
25 [label="X[0] <= 13.5\nmse = 0.0\nsamples = 43\nvalue = 0.075"] ;
21 -> 25 ;
26 [label="mse = 0.0\nsamples = 40\nvalue = 0.076"] ;
25 -> 26 ;
27 [label="mse = 0.0\nsamples = 3\nvalue = 0.067"] ;
25 -> 27 ;
28 [label="X[4] <= 0.5\nmse = 0.0\nsamples = 2\nvalue = 0.047"] ;
20 -> 28 ;
29 [label="mse = 0.0\nsamples = 1\nvalue = 0.038"] ;
28 -> 29 ;
30 [label="mse = 0.0\nsamples = 1\nvalue = 0.059"] ;
28 -> 30 ;
31 [label="X[0] <= 14.5\nmse = 0.0\nsamples = 462\nvalue = 0.073"] ;
5 -> 31 ;
32 [label="X[4] <= 0.5\nmse = 0.0\nsamples = 429\nvalue = 0.074"] ;
31 -> 32 ;
33 [label="X[2] <= 3.0\nmse = 0.0\nsamples = 70\nvalue = 0.07"] ;
32 -> 33 ;
34 [label="X[1] <= 3.5\nmse = 0.0\nsamples = 33\nvalue = 0.074"] ;
33 -> 34 ;
35 [label="mse = 0.0\nsamples = 16\nvalue = 0.077"] ;
34 -> 35 ;
36 [label="mse = 0.0\nsamples = 17\nvalue = 0.072"] ;
34 -> 36 ;
37 [label="X[0] <= 3.5\nmse = 0.0\nsamples = 37\nvalue = 0.067"] ;
33 -> 37 ;
38 [label="mse = 0.0\nsamples = 8\nvalue = 0.078"] ;
37 -> 38 ;
39 [label="mse = 0.0\nsamples = 29\nvalue = 0.065"] ;
37 -> 39 ;
40 [label="X[0] <= 11.5\nmse = 0.0\nsamples = 359\nvalue = 0.074"] ;
32 -> 40 ;
41 [label="X[0] <= 5.5\nmse = 0.0\nsamples = 287\nvalue = 0.074"] ;
40 -> 41 ;
42 [label="mse = 0.0\nsamples = 126\nvalue = 0.075"] ;
41 -> 42 ;
43 [label="mse = 0.0\nsamples = 161\nvalue = 0.073"] ;
41 -> 43 ;
44 [label="X[0] <= 13.5\nmse = 0.0\nsamples = 72\nvalue = 0.076"] ;
40 -> 44 ;
45 [label="mse = 0.0\nsamples = 51\nvalue = 0.076"] ;
44 -> 45 ;
46 [label="mse = 0.0\nsamples = 21\nvalue = 0.078"] ;
44 -> 46 ;
47 [label="X[1] <= 2.5\nmse = 0.0\nsamples = 33\nvalue = 0.068"] ;
31 -> 47 ;
48 [label="X[4] <= 2.5\nmse = 0.001\nsamples = 8\nvalue = 0.059"] ;
47 -> 48 ;
49 [label="X[2] <= 3.0\nmse = 0.0\nsamples = 4\nvalue = 0.041"] ;
48 -> 49 ;
50 [label="mse = 0.0\nsamples = 2\nvalue = 0.058"] ;
49 -> 50 ;
51 [label="mse = 0.0\nsamples = 2\nvalue = 0.034"] ;
49 -> 51 ;
52 [label="X[4] <= 4.5\nmse = 0.0\nsamples = 4\nvalue = 0.078"] ;
48 -> 52 ;
53 [label="mse = 0.0\nsamples = 3\nvalue = 0.081"] ;
52 -> 53 ;
54 [label="mse = 0.0\nsamples = 1\nvalue = 0.06"] ;
52 -> 54 ;
55 [label="X[2] <= 3.0\nmse = 0.0\nsamples = 25\nvalue = 0.072"] ;
47 -> 55 ;
56 [label="X[4] <= 2.5\nmse = 0.0\nsamples = 12\nvalue = 0.065"] ;
55 -> 56 ;
57 [label="mse = 0.0\nsamples = 7\nvalue = 0.071"] ;
56 -> 57 ;
58 [label="mse = 0.0\nsamples = 5\nvalue = 0.059"] ;
56 -> 58 ;
59 [label="X[4] <= 2.5\nmse = 0.0\nsamples = 13\nvalue = 0.077"] ;
55 -> 59 ;
60 [label="mse = 0.0\nsamples = 7\nvalue = 0.073"] ;
59 -> 60 ;
61 [label="mse = 0.0\nsamples = 6\nvalue = 0.081"] ;
59 -> 61 ;
62 [label="X[0] <= 14.5\nmse = 0.0\nsamples = 301\nvalue = 0.094"] ;
4 -> 62 ;
63 [label="X[0] <= 4.5\nmse = 0.0\nsamples = 278\nvalue = 0.094"] ;
62 -> 63 ;
64 [label="X[4] <= 3.5\nmse = 0.0\nsamples = 73\nvalue = 0.091"] ;
63 -> 64 ;
65 [label="X[1] <= 1.5\nmse = 0.0\nsamples = 51\nvalue = 0.093"] ;
64 -> 65 ;
66 [label="X[4] <= 1.5\nmse = 0.0\nsamples = 7\nvalue = 0.099"] ;
65 -> 66 ;
67 [label="mse = 0.0\nsamples = 4\nvalue = 0.1"] ;
66 -> 67 ;
68 [label="mse = 0.0\nsamples = 3\nvalue = 0.099"] ;
66 -> 68 ;
69 [label="X[4] <= 1.5\nmse = 0.0\nsamples = 44\nvalue = 0.092"] ;
65 -> 69 ;
70 [label="mse = 0.0\nsamples = 21\nvalue = 0.09"] ;
69 -> 70 ;
71 [label="mse = 0.0\nsamples = 23\nvalue = 0.094"] ;
69 -> 71 ;
72 [label="X[0] <= 3.5\nmse = 0.0\nsamples = 22\nvalue = 0.086"] ;
64 -> 72 ;
73 [label="X[1] <= 1.5\nmse = 0.0\nsamples = 16\nvalue = 0.09"] ;
72 -> 73 ;
74 [label="mse = 0.0\nsamples = 2\nvalue = 0.101"] ;
73 -> 74 ;
75 [label="mse = 0.0\nsamples = 14\nvalue = 0.088"] ;
73 -> 75 ;
76 [label="X[1] <= 4.5\nmse = 0.0\nsamples = 6\nvalue = 0.078"] ;
72 -> 76 ;
77 [label="mse = 0.0\nsamples = 4\nvalue = 0.072"] ;
76 -> 77 ;
78 [label="mse = 0.0\nsamples = 2\nvalue = 0.1"] ;
76 -> 78 ;
79 [label="X[0] <= 7.5\nmse = 0.0\nsamples = 205\nvalue = 0.096"] ;
63 -> 79 ;
80 [label="X[0] <= 6.5\nmse = 0.0\nsamples = 59\nvalue = 0.097"] ;
79 -> 80 ;
81 [label="X[4] <= 2.5\nmse = 0.0\nsamples = 38\nvalue = 0.096"] ;
80 -> 81 ;
82 [label="mse = 0.0\nsamples = 21\nvalue = 0.097"] ;
81 -> 82 ;
83 [label="mse = 0.0\nsamples = 17\nvalue = 0.094"] ;
81 -> 83 ;
84 [label="X[4] <= 4.5\nmse = 0.0\nsamples = 21\nvalue = 0.099"] ;
80 -> 84 ;
85 [label="mse = 0.0\nsamples = 18\nvalue = 0.099"] ;
84 -> 85 ;
86 [label="mse = 0.0\nsamples = 3\nvalue = 0.101"] ;
84 -> 86 ;
87 [label="X[1] <= 1.5\nmse = 0.0\nsamples = 146\nvalue = 0.095"] ;
79 -> 87 ;
88 [label="X[4] <= 1.5\nmse = 0.0\nsamples = 26\nvalue = 0.092"] ;
87 -> 88 ;
89 [label="mse = 0.0\nsamples = 10\nvalue = 0.086"] ;
88 -> 89 ;
90 [label="mse = 0.0\nsamples = 16\nvalue = 0.096"] ;
88 -> 90 ;
91 [label="X[4] <= 4.5\nmse = 0.0\nsamples = 120\nvalue = 0.096"] ;
87 -> 91 ;
92 [label="mse = 0.0\nsamples = 100\nvalue = 0.096"] ;
91 -> 92 ;
93 [label="mse = 0.0\nsamples = 20\nvalue = 0.093"] ;
91 -> 93 ;
94 [label="X[4] <= 3.5\nmse = 0.0\nsamples = 23\nvalue = 0.088"] ;
62 -> 94 ;
95 [label="X[4] <= 2.5\nmse = 0.0\nsamples = 16\nvalue = 0.086"] ;
94 -> 95 ;
96 [label="X[1] <= 2.5\nmse = 0.0\nsamples = 12\nvalue = 0.09"] ;
95 -> 96 ;
97 [label="X[4] <= 0.5\nmse = 0.0\nsamples = 5\nvalue = 0.098"] ;
96 -> 97 ;
98 [label="mse = 0.0\nsamples = 2\nvalue = 0.102"] ;
97 -> 98 ;
99 [label="mse = 0.0\nsamples = 3\nvalue = 0.094"] ;
97 -> 99 ;
100 [label="X[4] <= 1.5\nmse = 0.0\nsamples = 7\nvalue = 0.086"] ;
96 -> 100 ;
101 [label="mse = 0.0\nsamples = 5\nvalue = 0.082"] ;
100 -> 101 ;
102 [label="mse = 0.0\nsamples = 2\nvalue = 0.1"] ;
100 -> 102 ;
103 [label="X[1] <= 3.5\nmse = 0.0\nsamples = 4\nvalue = 0.075"] ;
95 -> 103 ;
104 [label="X[1] <= 2.5\nmse = 0.0\nsamples = 3\nvalue = 0.083"] ;
103 -> 104 ;
105 [label="mse = 0.0\nsamples = 2\nvalue = 0.083"] ;
104 -> 105 ;
106 [label="mse = -0.0\nsamples = 1\nvalue = 0.081"] ;
104 -> 106 ;
107 [label="mse = 0.0\nsamples = 1\nvalue = 0.06"] ;
103 -> 107 ;
108 [label="X[1] <= 2.5\nmse = 0.0\nsamples = 7\nvalue = 0.092"] ;
94 -> 108 ;
109 [label="X[4] <= 4.5\nmse = 0.0\nsamples = 3\nvalue = 0.086"] ;
108 -> 109 ;
110 [label="mse = 0.0\nsamples = 1\nvalue = 0.098"] ;
109 -> 110 ;
111 [label="X[1] <= 1.5\nmse = 0.0\nsamples = 2\nvalue = 0.082"] ;
109 -> 111 ;
112 [label="mse = 0.0\nsamples = 1\nvalue = 0.084"] ;
111 -> 112 ;
113 [label="mse = -0.0\nsamples = 1\nvalue = 0.079"] ;
111 -> 113 ;
114 [label="X[1] <= 4.5\nmse = 0.0\nsamples = 4\nvalue = 0.096"] ;
108 -> 114 ;
115 [label="X[4] <= 4.5\nmse = 0.0\nsamples = 3\nvalue = 0.099"] ;
114 -> 115 ;
116 [label="mse = 0.0\nsamples = 2\nvalue = 0.099"] ;
115 -> 116 ;
117 [label="mse = -0.0\nsamples = 1\nvalue = 0.103"] ;
115 -> 117 ;
118 [label="mse = -0.0\nsamples = 1\nvalue = 0.08"] ;
114 -> 118 ;
119 [label="X[1] <= 6.5\nmse = 0.0\nsamples = 326\nvalue = 0.03"] ;
3 -> 119 ;
120 [label="X[2] <= 3.0\nmse = 0.0\nsamples = 159\nvalue = 0.039"] ;
119 -> 120 ;
121 [label="X[4] <= 4.5\nmse = 0.0\nsamples = 55\nvalue = 0.063"] ;
120 -> 121 ;
122 [label="X[4] <= 3.5\nmse = 0.0\nsamples = 43\nvalue = 0.059"] ;
121 -> 122 ;
123 [label="X[0] <= 14.5\nmse = 0.0\nsamples = 35\nvalue = 0.061"] ;
122 -> 123 ;
124 [label="X[4] <= 0.5\nmse = 0.0\nsamples = 32\nvalue = 0.061"] ;
123 -> 124 ;
125 [label="mse = 0.0\nsamples = 7\nvalue = 0.058"] ;
124 -> 125 ;
126 [label="mse = 0.0\nsamples = 25\nvalue = 0.063"] ;
124 -> 126 ;
127 [label="X[4] <= 1.5\nmse = 0.0\nsamples = 3\nvalue = 0.05"] ;
123 -> 127 ;
128 [label="mse = 0.0\nsamples = 1\nvalue = 0.064"] ;
127 -> 128 ;
129 [label="mse = 0.0\nsamples = 2\nvalue = 0.043"] ;
127 -> 129 ;
130 [label="X[0] <= 13.0\nmse = 0.0\nsamples = 8\nvalue = 0.05"] ;
122 -> 130 ;
131 [label="X[0] <= 11.0\nmse = 0.0\nsamples = 6\nvalue = 0.046"] ;
130 -> 131 ;
132 [label="mse = 0.0\nsamples = 5\nvalue = 0.049"] ;
131 -> 132 ;
133 [label="mse = 0.0\nsamples = 1\nvalue = 0.026"] ;
131 -> 133 ;
134 [label="X[0] <= 14.5\nmse = 0.0\nsamples = 2\nvalue = 0.059"] ;
130 -> 134 ;
135 [label="mse = 0.0\nsamples = 1\nvalue = 0.067"] ;
134 -> 135 ;
136 [label="mse = 0.0\nsamples = 1\nvalue = 0.041"] ;
134 -> 136 ;
137 [label="X[0] <= 5.5\nmse = 0.001\nsamples = 12\nvalue = 0.072"] ;
121 -> 137 ;
138 [label="X[0] <= 4.5\nmse = 0.003\nsamples = 3\nvalue = 0.099"] ;
137 -> 138 ;
139 [label="X[0] <= 3.0\nmse = 0.0\nsamples = 2\nvalue = 0.065"] ;
138 -> 139 ;
140 [label="mse = 0.0\nsamples = 1\nvalue = 0.064"] ;
139 -> 140 ;
141 [label="mse = 0.0\nsamples = 1\nvalue = 0.066"] ;
139 -> 141 ;
142 [label="mse = 0.0\nsamples = 1\nvalue = 0.183"] ;
138 -> 142 ;
143 [label="X[0] <= 12.0\nmse = 0.0\nsamples = 9\nvalue = 0.062"] ;
137 -> 143 ;
144 [label="X[0] <= 10.5\nmse = 0.0\nsamples = 6\nvalue = 0.064"] ;
143 -> 144 ;
145 [label="mse = 0.0\nsamples = 5\nvalue = 0.065"] ;
144 -> 145 ;
146 [label="mse = 0.0\nsamples = 1\nvalue = 0.061"] ;
144 -> 146 ;
147 [label="X[0] <= 14.5\nmse = 0.0\nsamples = 3\nvalue = 0.05"] ;
143 -> 147 ;
148 [label="mse = 0.0\nsamples = 2\nvalue = 0.043"] ;
147 -> 148 ;
149 [label="mse = 0.0\nsamples = 1\nvalue = 0.065"] ;
147 -> 149 ;
150 [label="X[2] <= 7.0\nmse = 0.0\nsamples = 104\nvalue = 0.026"] ;
120 -> 150 ;
151 [label="X[4] <= 1.5\nmse = 0.0\nsamples = 49\nvalue = 0.018"] ;
150 -> 151 ;
152 [label="X[0] <= 3.0\nmse = 0.0\nsamples = 16\nvalue = 0.019"] ;
151 -> 152 ;
153 [label="X[0] <= 1.5\nmse = 0.0\nsamples = 2\nvalue = 0.016"] ;
152 -> 153 ;
154 [label="mse = 0.0\nsamples = 1\nvalue = 0.015"] ;
153 -> 154 ;
155 [label="mse = 0.0\nsamples = 1\nvalue = 0.017"] ;
153 -> 155 ;
156 [label="X[0] <= 11.5\nmse = 0.0\nsamples = 14\nvalue = 0.019"] ;
152 -> 156 ;
157 [label="mse = 0.0\nsamples = 7\nvalue = 0.021"] ;
156 -> 157 ;
158 [label="mse = 0.0\nsamples = 7\nvalue = 0.018"] ;
156 -> 158 ;
159 [label="X[0] <= 9.5\nmse = 0.0\nsamples = 33\nvalue = 0.018"] ;
151 -> 159 ;
160 [label="X[4] <= 3.5\nmse = 0.0\nsamples = 17\nvalue = 0.018"] ;
159 -> 160 ;
161 [label="mse = 0.0\nsamples = 9\nvalue = 0.017"] ;
160 -> 161 ;
162 [label="mse = 0.0\nsamples = 8\nvalue = 0.02"] ;
160 -> 162 ;
163 [label="X[0] <= 10.5\nmse = 0.0\nsamples = 16\nvalue = 0.017"] ;
159 -> 163 ;
164 [label="mse = 0.0\nsamples = 1\nvalue = 0.01"] ;
163 -> 164 ;
165 [label="mse = 0.0\nsamples = 15\nvalue = 0.017"] ;
163 -> 165 ;
166 [label="X[0] <= 13.5\nmse = 0.0\nsamples = 55\nvalue = 0.033"] ;
150 -> 166 ;
167 [label="X[4] <= 4.5\nmse = 0.0\nsamples = 53\nvalue = 0.033"] ;
166 -> 167 ;
168 [label="X[4] <= 0.5\nmse = 0.0\nsamples = 43\nvalue = 0.033"] ;
167 -> 168 ;
169 [label="mse = 0.0\nsamples = 6\nvalue = 0.031"] ;
168 -> 169 ;
170 [label="mse = 0.0\nsamples = 37\nvalue = 0.033"] ;
168 -> 170 ;
171 [label="X[0] <= 11.0\nmse = 0.0\nsamples = 10\nvalue = 0.035"] ;
167 -> 171 ;
172 [label="mse = 0.0\nsamples = 8\nvalue = 0.035"] ;
171 -> 172 ;
173 [label="mse = 0.0\nsamples = 2\nvalue = 0.033"] ;
171 -> 173 ;
174 [label="X[0] <= 14.5\nmse = 0.0\nsamples = 2\nvalue = 0.037"] ;
166 -> 174 ;
175 [label="mse = 0.0\nsamples = 1\nvalue = 0.038"] ;
174 -> 175 ;
176 [label="mse = 0.0\nsamples = 1\nvalue = 0.035"] ;
174 -> 176 ;
177 [label="X[2] <= 7.0\nmse = 0.0\nsamples = 167\nvalue = 0.023"] ;
119 -> 177 ;
178 [label="X[2] <= 3.0\nmse = 0.0\nsamples = 115\nvalue = 0.018"] ;
177 -> 178 ;
179 [label="X[0] <= 8.5\nmse = 0.0\nsamples = 60\nvalue = 0.019"] ;
178 -> 179 ;
180 [label="X[0] <= 7.5\nmse = 0.0\nsamples = 32\nvalue = 0.019"] ;
179 -> 180 ;
181 [label="X[4] <= 0.5\nmse = 0.0\nsamples = 30\nvalue = 0.019"] ;
180 -> 181 ;
182 [label="mse = 0.0\nsamples = 5\nvalue = 0.021"] ;
181 -> 182 ;
183 [label="mse = 0.0\nsamples = 25\nvalue = 0.018"] ;
181 -> 183 ;
184 [label="X[4] <= 0.5\nmse = 0.0\nsamples = 2\nvalue = 0.022"] ;
180 -> 184 ;
185 [label="mse = 0.0\nsamples = 1\nvalue = 0.016"] ;
184 -> 185 ;
186 [label="mse = 0.0\nsamples = 1\nvalue = 0.024"] ;
184 -> 186 ;
187 [label="X[4] <= 4.5\nmse = 0.0\nsamples = 28\nvalue = 0.018"] ;
179 -> 187 ;
188 [label="X[0] <= 13.5\nmse = 0.0\nsamples = 23\nvalue = 0.018"] ;
187 -> 188 ;
189 [label="mse = 0.0\nsamples = 17\nvalue = 0.018"] ;
188 -> 189 ;
190 [label="mse = 0.0\nsamples = 6\nvalue = 0.016"] ;
188 -> 190 ;
191 [label="X[0] <= 13.5\nmse = 0.0\nsamples = 5\nvalue = 0.021"] ;
187 -> 191 ;
192 [label="mse = 0.0\nsamples = 3\nvalue = 0.02"] ;
191 -> 192 ;
193 [label="mse = 0.0\nsamples = 2\nvalue = 0.022"] ;
191 -> 193 ;
194 [label="X[0] <= 3.5\nmse = 0.0\nsamples = 55\nvalue = 0.017"] ;
178 -> 194 ;
195 [label="X[0] <= 1.5\nmse = 0.0\nsamples = 10\nvalue = 0.02"] ;
194 -> 195 ;
196 [label="X[4] <= 2.0\nmse = 0.0\nsamples = 3\nvalue = 0.018"] ;
195 -> 196 ;
197 [label="mse = 0.0\nsamples = 2\nvalue = 0.019"] ;
196 -> 197 ;
198 [label="mse = -0.0\nsamples = 1\nvalue = 0.015"] ;
196 -> 198 ;
199 [label="X[4] <= 2.5\nmse = 0.0\nsamples = 7\nvalue = 0.02"] ;
195 -> 199 ;
200 [label="mse = 0.0\nsamples = 4\nvalue = 0.019"] ;
199 -> 200 ;
201 [label="mse = 0.0\nsamples = 3\nvalue = 0.023"] ;
199 -> 201 ;
202 [label="X[4] <= 4.5\nmse = 0.0\nsamples = 45\nvalue = 0.017"] ;
194 -> 202 ;
203 [label="X[0] <= 12.5\nmse = 0.0\nsamples = 34\nvalue = 0.017"] ;
202 -> 203 ;
204 [label="mse = 0.0\nsamples = 26\nvalue = 0.018"] ;
203 -> 204 ;
205 [label="mse = 0.0\nsamples = 8\nvalue = 0.015"] ;
203 -> 205 ;
206 [label="X[0] <= 13.5\nmse = 0.0\nsamples = 11\nvalue = 0.016"] ;
202 -> 206 ;
207 [label="mse = 0.0\nsamples = 9\nvalue = 0.015"] ;
206 -> 207 ;
208 [label="mse = 0.0\nsamples = 2\nvalue = 0.02"] ;
206 -> 208 ;
209 [label="X[0] <= 1.5\nmse = 0.0\nsamples = 52\nvalue = 0.033"] ;
177 -> 209 ;
210 [label="X[4] <= 3.5\nmse = 0.0\nsamples = 5\nvalue = 0.032"] ;
209 -> 210 ;
211 [label="X[4] <= 2.0\nmse = 0.0\nsamples = 3\nvalue = 0.035"] ;
210 -> 211 ;
212 [label="mse = 0.0\nsamples = 2\nvalue = 0.036"] ;
211 -> 212 ;
213 [label="mse = 0.0\nsamples = 1\nvalue = 0.033"] ;
211 -> 213 ;
214 [label="X[4] <= 4.5\nmse = 0.0\nsamples = 2\nvalue = 0.029"] ;
210 -> 214 ;
215 [label="mse = 0.0\nsamples = 1\nvalue = 0.028"] ;
214 -> 215 ;
216 [label="mse = 0.0\nsamples = 1\nvalue = 0.031"] ;
214 -> 216 ;
217 [label="X[4] <= 0.5\nmse = 0.0\nsamples = 47\nvalue = 0.033"] ;
209 -> 217 ;
218 [label="X[0] <= 10.0\nmse = 0.0\nsamples = 7\nvalue = 0.032"] ;
217 -> 218 ;
219 [label="X[0] <= 4.5\nmse = 0.0\nsamples = 4\nvalue = 0.03"] ;
218 -> 219 ;
220 [label="mse = 0.0\nsamples = 2\nvalue = 0.034"] ;
219 -> 220 ;
221 [label="mse = 0.0\nsamples = 2\nvalue = 0.027"] ;
219 -> 221 ;
222 [label="X[0] <= 11.5\nmse = 0.0\nsamples = 3\nvalue = 0.034"] ;
218 -> 222 ;
223 [label="mse = 0.0\nsamples = 1\nvalue = 0.035"] ;
222 -> 223 ;
224 [label="mse = 0.0\nsamples = 2\nvalue = 0.033"] ;
222 -> 224 ;
225 [label="X[0] <= 7.5\nmse = 0.0\nsamples = 40\nvalue = 0.034"] ;
217 -> 225 ;
226 [label="X[4] <= 2.5\nmse = 0.0\nsamples = 20\nvalue = 0.034"] ;
225 -> 226 ;
227 [label="mse = 0.0\nsamples = 7\nvalue = 0.035"] ;
226 -> 227 ;
228 [label="mse = 0.0\nsamples = 13\nvalue = 0.034"] ;
226 -> 228 ;
229 [label="X[0] <= 9.5\nmse = 0.0\nsamples = 20\nvalue = 0.033"] ;
225 -> 229 ;
230 [label="mse = 0.0\nsamples = 7\nvalue = 0.032"] ;
229 -> 230 ;
231 [label="mse = 0.0\nsamples = 13\nvalue = 0.034"] ;
229 -> 231 ;
232 [label="X[1] <= 5.5\nmse = 0.003\nsamples = 1172\nvalue = 0.139"] ;
2 -> 232 ;
233 [label="X[1] <= 2.5\nmse = 0.002\nsamples = 830\nvalue = 0.165"] ;
232 -> 233 ;
234 [label="X[1] <= 1.5\nmse = 0.004\nsamples = 307\nvalue = 0.185"] ;
233 -> 234 ;
235 [label="X[2] <= 19.0\nmse = 0.0\nsamples = 184\nvalue = 0.151"] ;
234 -> 235 ;
236 [label="X[0] <= 12.5\nmse = 0.0\nsamples = 116\nvalue = 0.16"] ;
235 -> 236 ;
237 [label="X[4] <= 3.5\nmse = 0.0\nsamples = 91\nvalue = 0.16"] ;
236 -> 237 ;
238 [label="X[0] <= 7.5\nmse = 0.0\nsamples = 63\nvalue = 0.16"] ;
237 -> 238 ;
239 [label="mse = 0.0\nsamples = 33\nvalue = 0.16"] ;
238 -> 239 ;
240 [label="mse = 0.0\nsamples = 30\nvalue = 0.16"] ;
238 -> 240 ;
241 [label="X[0] <= 3.5\nmse = 0.0\nsamples = 28\nvalue = 0.161"] ;
237 -> 241 ;
242 [label="mse = 0.0\nsamples = 8\nvalue = 0.161"] ;
241 -> 242 ;
243 [label="mse = 0.0\nsamples = 20\nvalue = 0.16"] ;
241 -> 243 ;
244 [label="X[4] <= 4.5\nmse = 0.0\nsamples = 25\nvalue = 0.159"] ;
236 -> 244 ;
245 [label="X[4] <= 3.5\nmse = 0.0\nsamples = 20\nvalue = 0.159"] ;
244 -> 245 ;
246 [label="mse = 0.0\nsamples = 15\nvalue = 0.159"] ;
245 -> 246 ;
247 [label="mse = 0.0\nsamples = 5\nvalue = 0.16"] ;
245 -> 247 ;
248 [label="X[2] <= 15.0\nmse = 0.0\nsamples = 5\nvalue = 0.158"] ;
244 -> 248 ;
249 [label="mse = 0.0\nsamples = 2\nvalue = 0.159"] ;
248 -> 249 ;
250 [label="mse = 0.0\nsamples = 3\nvalue = 0.158"] ;
248 -> 250 ;
251 [label="X[0] <= 10.5\nmse = 0.0\nsamples = 68\nvalue = 0.138"] ;
235 -> 251 ;
252 [label="X[4] <= 4.5\nmse = 0.0\nsamples = 45\nvalue = 0.139"] ;
251 -> 252 ;
253 [label="X[0] <= 9.5\nmse = 0.0\nsamples = 42\nvalue = 0.138"] ;
252 -> 253 ;
254 [label="mse = 0.0\nsamples = 37\nvalue = 0.138"] ;
253 -> 254 ;
255 [label="mse = 0.0\nsamples = 5\nvalue = 0.141"] ;
253 -> 255 ;
256 [label="X[0] <= 7.0\nmse = 0.0\nsamples = 3\nvalue = 0.143"] ;
252 -> 256 ;
257 [label="mse = 0.0\nsamples = 2\nvalue = 0.145"] ;
256 -> 257 ;
258 [label="mse = 0.0\nsamples = 1\nvalue = 0.14"] ;
256 -> 258 ;
259 [label="X[4] <= 4.5\nmse = 0.0\nsamples = 23\nvalue = 0.135"] ;
251 -> 259 ;
260 [label="X[0] <= 11.5\nmse = 0.0\nsamples = 18\nvalue = 0.136"] ;
259 -> 260 ;
261 [label="mse = 0.0\nsamples = 4\nvalue = 0.13"] ;
260 -> 261 ;
262 [label="mse = 0.0\nsamples = 14\nvalue = 0.139"] ;
260 -> 262 ;
263 [label="X[0] <= 11.5\nmse = 0.0\nsamples = 5\nvalue = 0.132"] ;
259 -> 263 ;
264 [label="mse = 0.0\nsamples = 1\nvalue = 0.141"] ;
263 -> 264 ;
265 [label="mse = 0.0\nsamples = 4\nvalue = 0.124"] ;
263 -> 265 ;
266 [label="X[2] <= 17.0\nmse = 0.005\nsamples = 123\nvalue = 0.234"] ;
234 -> 266 ;
267 [label="X[0] <= 8.5\nmse = 0.0\nsamples = 58\nvalue = 0.161"] ;
266 -> 267 ;
268 [label="X[0] <= 6.5\nmse = 0.0\nsamples = 32\nvalue = 0.16"] ;
267 -> 268 ;
269 [label="X[0] <= 3.5\nmse = 0.0\nsamples = 25\nvalue = 0.161"] ;
268 -> 269 ;
270 [label="mse = 0.0\nsamples = 14\nvalue = 0.16"] ;
269 -> 270 ;
271 [label="mse = 0.0\nsamples = 11\nvalue = 0.161"] ;
269 -> 271 ;
272 [label="X[4] <= 1.5\nmse = 0.0\nsamples = 7\nvalue = 0.159"] ;
268 -> 272 ;
273 [label="mse = 0.0\nsamples = 3\nvalue = 0.16"] ;
272 -> 273 ;
274 [label="mse = 0.0\nsamples = 4\nvalue = 0.158"] ;
272 -> 274 ;
275 [label="X[0] <= 13.5\nmse = 0.0\nsamples = 26\nvalue = 0.161"] ;
267 -> 275 ;
276 [label="X[0] <= 9.5\nmse = 0.0\nsamples = 17\nvalue = 0.161"] ;
275 -> 276 ;
277 [label="mse = 0.0\nsamples = 2\nvalue = 0.164"] ;
276 -> 277 ;
278 [label="mse = 0.0\nsamples = 15\nvalue = 0.161"] ;
276 -> 278 ;
279 [label="X[4] <= 2.5\nmse = 0.0\nsamples = 9\nvalue = 0.16"] ;
275 -> 279 ;
280 [label="mse = 0.0\nsamples = 4\nvalue = 0.161"] ;
279 -> 280 ;
281 [label="mse = 0.0\nsamples = 5\nvalue = 0.159"] ;
279 -> 281 ;
282 [label="X[4] <= 0.5\nmse = 0.0\nsamples = 65\nvalue = 0.299"] ;
266 -> 282 ;
283 [label="X[0] <= 4.5\nmse = 0.0\nsamples = 15\nvalue = 0.298"] ;
282 -> 283 ;
284 [label="X[0] <= 3.5\nmse = 0.0\nsamples = 4\nvalue = 0.294"] ;
283 -> 284 ;
285 [label="mse = 0.0\nsamples = 3\nvalue = 0.297"] ;
284 -> 285 ;
286 [label="mse = -0.0\nsamples = 1\nvalue = 0.28"] ;
284 -> 286 ;
287 [label="X[0] <= 11.5\nmse = 0.0\nsamples = 11\nvalue = 0.299"] ;
283 -> 287 ;
288 [label="mse = 0.0\nsamples = 7\nvalue = 0.3"] ;
287 -> 288 ;
289 [label="mse = 0.0\nsamples = 4\nvalue = 0.297"] ;
287 -> 289 ;
290 [label="X[0] <= 14.5\nmse = 0.0\nsamples = 50\nvalue = 0.3"] ;
282 -> 290 ;
291 [label="X[4] <= 2.5\nmse = 0.0\nsamples = 46\nvalue = 0.3"] ;
290 -> 291 ;
292 [label="mse = 0.0\nsamples = 19\nvalue = 0.3"] ;
291 -> 292 ;
293 [label="mse = 0.0\nsamples = 27\nvalue = 0.3"] ;
291 -> 293 ;
294 [label="X[4] <= 4.0\nmse = 0.0\nsamples = 4\nvalue = 0.296"] ;
290 -> 294 ;
295 [label="mse = 0.0\nsamples = 3\nvalue = 0.299"] ;
294 -> 295 ;
296 [label="mse = 0.0\nsamples = 1\nvalue = 0.284"] ;
294 -> 296 ;
297 [label="X[2] <= 19.0\nmse = 0.0\nsamples = 523\nvalue = 0.153"] ;
233 -> 297 ;
298 [label="X[4] <= 4.5\nmse = 0.0\nsamples = 350\nvalue = 0.16"] ;
297 -> 298 ;
299 [label="X[4] <= 2.5\nmse = 0.0\nsamples = 295\nvalue = 0.16"] ;
298 -> 299 ;
300 [label="X[0] <= 14.5\nmse = 0.0\nsamples = 174\nvalue = 0.16"] ;
299 -> 300 ;
301 [label="X[0] <= 1.5\nmse = 0.0\nsamples = 162\nvalue = 0.16"] ;
300 -> 301 ;
302 [label="mse = 0.0\nsamples = 10\nvalue = 0.159"] ;
301 -> 302 ;
303 [label="mse = 0.0\nsamples = 152\nvalue = 0.16"] ;
301 -> 303 ;
304 [label="X[2] <= 15.0\nmse = 0.0\nsamples = 12\nvalue = 0.159"] ;
300 -> 304 ;
305 [label="mse = 0.0\nsamples = 6\nvalue = 0.158"] ;
304 -> 305 ;
306 [label="mse = 0.0\nsamples = 6\nvalue = 0.16"] ;
304 -> 306 ;
307 [label="X[0] <= 13.5\nmse = 0.0\nsamples = 121\nvalue = 0.159"] ;
299 -> 307 ;
308 [label="X[0] <= 2.5\nmse = 0.0\nsamples = 106\nvalue = 0.159"] ;
307 -> 308 ;
309 [label="mse = 0.0\nsamples = 16\nvalue = 0.16"] ;
308 -> 309 ;
310 [label="mse = 0.0\nsamples = 90\nvalue = 0.159"] ;
308 -> 310 ;
311 [label="X[2] <= 15.0\nmse = 0.0\nsamples = 15\nvalue = 0.161"] ;
307 -> 311 ;
312 [label="mse = 0.0\nsamples = 6\nvalue = 0.161"] ;
311 -> 312 ;
313 [label="mse = 0.0\nsamples = 9\nvalue = 0.16"] ;
311 -> 313 ;
314 [label="X[0] <= 14.5\nmse = 0.0\nsamples = 55\nvalue = 0.161"] ;
298 -> 314 ;
315 [label="X[0] <= 13.5\nmse = 0.0\nsamples = 50\nvalue = 0.161"] ;
314 -> 315 ;
316 [label="X[0] <= 5.5\nmse = 0.0\nsamples = 47\nvalue = 0.161"] ;
315 -> 316 ;
317 [label="mse = 0.0\nsamples = 20\nvalue = 0.161"] ;
316 -> 317 ;
318 [label="mse = 0.0\nsamples = 27\nvalue = 0.16"] ;
316 -> 318 ;
319 [label="X[2] <= 15.0\nmse = 0.0\nsamples = 3\nvalue = 0.163"] ;
315 -> 319 ;
320 [label="mse = 0.0\nsamples = 2\nvalue = 0.161"] ;
319 -> 320 ;
321 [label="mse = 0.0\nsamples = 1\nvalue = 0.166"] ;
319 -> 321 ;
322 [label="X[2] <= 15.0\nmse = 0.0\nsamples = 5\nvalue = 0.159"] ;
314 -> 322 ;
323 [label="mse = 0.0\nsamples = 2\nvalue = 0.158"] ;
322 -> 323 ;
324 [label="X[1] <= 3.5\nmse = 0.0\nsamples = 3\nvalue = 0.161"] ;
322 -> 324 ;
325 [label="mse = 0.0\nsamples = 1\nvalue = 0.16"] ;
324 -> 325 ;
326 [label="mse = 0.0\nsamples = 2\nvalue = 0.161"] ;
324 -> 326 ;
327 [label="X[4] <= 1.5\nmse = 0.0\nsamples = 173\nvalue = 0.138"] ;
297 -> 327 ;
328 [label="X[0] <= 7.5\nmse = 0.0\nsamples = 56\nvalue = 0.136"] ;
327 -> 328 ;
329 [label="X[1] <= 4.5\nmse = 0.0\nsamples = 26\nvalue = 0.138"] ;
328 -> 329 ;
330 [label="X[4] <= 0.5\nmse = 0.0\nsamples = 21\nvalue = 0.139"] ;
329 -> 330 ;
331 [label="mse = 0.0\nsamples = 11\nvalue = 0.14"] ;
330 -> 331 ;
332 [label="mse = 0.0\nsamples = 10\nvalue = 0.138"] ;
330 -> 332 ;
333 [label="X[4] <= 0.5\nmse = 0.0\nsamples = 5\nvalue = 0.134"] ;
329 -> 333 ;
334 [label="mse = 0.0\nsamples = 2\nvalue = 0.12"] ;
333 -> 334 ;
335 [label="mse = 0.0\nsamples = 3\nvalue = 0.138"] ;
333 -> 335 ;
336 [label="X[1] <= 3.5\nmse = 0.0\nsamples = 30\nvalue = 0.135"] ;
328 -> 336 ;
337 [label="X[0] <= 10.5\nmse = 0.0\nsamples = 10\nvalue = 0.131"] ;
336 -> 337 ;
338 [label="mse = 0.0\nsamples = 4\nvalue = 0.135"] ;
337 -> 338 ;
339 [label="mse = 0.0\nsamples = 6\nvalue = 0.128"] ;
337 -> 339 ;
340 [label="X[0] <= 8.5\nmse = 0.0\nsamples = 20\nvalue = 0.137"] ;
336 -> 340 ;
341 [label="mse = 0.0\nsamples = 2\nvalue = 0.13"] ;
340 -> 341 ;
342 [label="mse = 0.0\nsamples = 18\nvalue = 0.138"] ;
340 -> 342 ;
343 [label="X[1] <= 4.5\nmse = 0.0\nsamples = 117\nvalue = 0.139"] ;
327 -> 343 ;
344 [label="X[4] <= 4.5\nmse = 0.0\nsamples = 75\nvalue = 0.138"] ;
343 -> 344 ;
345 [label="X[1] <= 3.5\nmse = 0.0\nsamples = 55\nvalue = 0.139"] ;
344 -> 345 ;
346 [label="mse = 0.0\nsamples = 26\nvalue = 0.14"] ;
345 -> 346 ;
347 [label="mse = 0.0\nsamples = 29\nvalue = 0.137"] ;
345 -> 347 ;
348 [label="X[0] <= 9.5\nmse = 0.0\nsamples = 20\nvalue = 0.135"] ;
344 -> 348 ;
349 [label="mse = 0.0\nsamples = 12\nvalue = 0.131"] ;
348 -> 349 ;
350 [label="mse = 0.0\nsamples = 8\nvalue = 0.139"] ;
348 -> 350 ;
351 [label="X[4] <= 4.5\nmse = 0.0\nsamples = 42\nvalue = 0.141"] ;
343 -> 351 ;
352 [label="X[0] <= 8.5\nmse = 0.0\nsamples = 34\nvalue = 0.139"] ;
351 -> 352 ;
353 [label="mse = 0.0\nsamples = 17\nvalue = 0.14"] ;
352 -> 353 ;
354 [label="mse = 0.0\nsamples = 17\nvalue = 0.138"] ;
352 -> 354 ;
355 [label="X[0] <= 3.0\nmse = 0.002\nsamples = 8\nvalue = 0.15"] ;
351 -> 355 ;
356 [label="mse = 0.006\nsamples = 2\nvalue = 0.173"] ;
355 -> 356 ;
357 [label="mse = 0.0\nsamples = 6\nvalue = 0.141"] ;
355 -> 357 ;
358 [label="X[2] <= 19.0\nmse = 0.0\nsamples = 342\nvalue = 0.074"] ;
232 -> 358 ;
359 [label="X[4] <= 0.5\nmse = 0.0\nsamples = 228\nvalue = 0.08"] ;
358 -> 359 ;
360 [label="X[0] <= 13.5\nmse = 0.0\nsamples = 39\nvalue = 0.079"] ;
359 -> 360 ;
361 [label="X[2] <= 15.0\nmse = 0.0\nsamples = 34\nvalue = 0.08"] ;
360 -> 361 ;
362 [label="X[0] <= 11.5\nmse = 0.0\nsamples = 16\nvalue = 0.079"] ;
361 -> 362 ;
363 [label="X[1] <= 6.5\nmse = 0.0\nsamples = 13\nvalue = 0.079"] ;
362 -> 363 ;
364 [label="mse = 0.0\nsamples = 4\nvalue = 0.078"] ;
363 -> 364 ;
365 [label="mse = 0.0\nsamples = 9\nvalue = 0.079"] ;
363 -> 365 ;
366 [label="X[1] <= 6.5\nmse = 0.0\nsamples = 3\nvalue = 0.081"] ;
362 -> 366 ;
367 [label="mse = 0.0\nsamples = 1\nvalue = 0.083"] ;
366 -> 367 ;
368 [label="mse = 0.0\nsamples = 2\nvalue = 0.08"] ;
366 -> 368 ;
369 [label="X[0] <= 8.0\nmse = 0.0\nsamples = 18\nvalue = 0.08"] ;
361 -> 369 ;
370 [label="X[0] <= 4.5\nmse = 0.0\nsamples = 10\nvalue = 0.08"] ;
369 -> 370 ;
371 [label="mse = 0.0\nsamples = 5\nvalue = 0.08"] ;
370 -> 371 ;
372 [label="mse = 0.0\nsamples = 5\nvalue = 0.079"] ;
370 -> 372 ;
373 [label="X[0] <= 9.5\nmse = 0.0\nsamples = 8\nvalue = 0.08"] ;
369 -> 373 ;
374 [label="mse = 0.0\nsamples = 1\nvalue = 0.082"] ;
373 -> 374 ;
375 [label="mse = 0.0\nsamples = 7\nvalue = 0.08"] ;
373 -> 375 ;
376 [label="X[2] <= 15.0\nmse = 0.0\nsamples = 5\nvalue = 0.078"] ;
360 -> 376 ;
377 [label="X[1] <= 6.5\nmse = 0.0\nsamples = 2\nvalue = 0.076"] ;
376 -> 377 ;
378 [label="mse = 0.0\nsamples = 1\nvalue = 0.078"] ;
377 -> 378 ;
379 [label="mse = 0.0\nsamples = 1\nvalue = 0.075"] ;
377 -> 379 ;
380 [label="X[1] <= 6.5\nmse = 0.0\nsamples = 3\nvalue = 0.079"] ;
376 -> 380 ;
381 [label="mse = 0.0\nsamples = 1\nvalue = 0.082"] ;
380 -> 381 ;
382 [label="X[0] <= 14.5\nmse = 0.0\nsamples = 2\nvalue = 0.079"] ;
380 -> 382 ;
383 [label="mse = 0.0\nsamples = 1\nvalue = 0.079"] ;
382 -> 383 ;
384 [label="mse = -0.0\nsamples = 1\nvalue = 0.078"] ;
382 -> 384 ;
385 [label="X[0] <= 12.5\nmse = 0.0\nsamples = 189\nvalue = 0.08"] ;
359 -> 385 ;
386 [label="X[4] <= 2.5\nmse = 0.0\nsamples = 151\nvalue = 0.08"] ;
385 -> 386 ;
387 [label="X[4] <= 1.5\nmse = 0.0\nsamples = 63\nvalue = 0.08"] ;
386 -> 387 ;
388 [label="X[2] <= 15.0\nmse = 0.0\nsamples = 33\nvalue = 0.08"] ;
387 -> 388 ;
389 [label="mse = 0.0\nsamples = 11\nvalue = 0.08"] ;
388 -> 389 ;
390 [label="mse = 0.0\nsamples = 22\nvalue = 0.079"] ;
388 -> 390 ;
391 [label="X[0] <= 1.5\nmse = 0.0\nsamples = 30\nvalue = 0.081"] ;
387 -> 391 ;
392 [label="mse = 0.0\nsamples = 2\nvalue = 0.077"] ;
391 -> 392 ;
393 [label="mse = 0.0\nsamples = 28\nvalue = 0.081"] ;
391 -> 393 ;
394 [label="X[0] <= 1.5\nmse = 0.0\nsamples = 88\nvalue = 0.08"] ;
386 -> 394 ;
395 [label="X[2] <= 15.0\nmse = 0.0\nsamples = 7\nvalue = 0.081"] ;
394 -> 395 ;
396 [label="mse = 0.0\nsamples = 4\nvalue = 0.082"] ;
395 -> 396 ;
397 [label="mse = 0.0\nsamples = 3\nvalue = 0.08"] ;
395 -> 397 ;
398 [label="X[0] <= 3.5\nmse = 0.0\nsamples = 81\nvalue = 0.08"] ;
394 -> 398 ;
399 [label="mse = 0.0\nsamples = 15\nvalue = 0.079"] ;
398 -> 399 ;
400 [label="mse = 0.0\nsamples = 66\nvalue = 0.08"] ;
398 -> 400 ;
401 [label="X[4] <= 4.5\nmse = 0.0\nsamples = 38\nvalue = 0.081"] ;
385 -> 401 ;
402 [label="X[4] <= 3.5\nmse = 0.0\nsamples = 30\nvalue = 0.081"] ;
401 -> 402 ;
403 [label="X[2] <= 15.0\nmse = 0.0\nsamples = 21\nvalue = 0.081"] ;
402 -> 403 ;
404 [label="mse = 0.0\nsamples = 12\nvalue = 0.08"] ;
403 -> 404 ;
405 [label="mse = 0.0\nsamples = 9\nvalue = 0.081"] ;
403 -> 405 ;
406 [label="X[1] <= 6.5\nmse = 0.0\nsamples = 9\nvalue = 0.082"] ;
402 -> 406 ;
407 [label="mse = 0.0\nsamples = 5\nvalue = 0.082"] ;
406 -> 407 ;
408 [label="mse = 0.0\nsamples = 4\nvalue = 0.081"] ;
406 -> 408 ;
409 [label="X[1] <= 6.5\nmse = 0.0\nsamples = 8\nvalue = 0.08"] ;
401 -> 409 ;
410 [label="X[2] <= 15.0\nmse = 0.0\nsamples = 5\nvalue = 0.079"] ;
409 -> 410 ;
411 [label="mse = 0.0\nsamples = 2\nvalue = 0.078"] ;
410 -> 411 ;
412 [label="mse = 0.0\nsamples = 3\nvalue = 0.08"] ;
410 -> 412 ;
413 [label="X[2] <= 15.0\nmse = 0.0\nsamples = 3\nvalue = 0.081"] ;
409 -> 413 ;
414 [label="mse = 0.0\nsamples = 2\nvalue = 0.081"] ;
413 -> 414 ;
415 [label="mse = 0.0\nsamples = 1\nvalue = 0.08"] ;
413 -> 415 ;
416 [label="X[0] <= 2.5\nmse = 0.0\nsamples = 114\nvalue = 0.064"] ;
358 -> 416 ;
417 [label="X[4] <= 4.5\nmse = 0.0\nsamples = 17\nvalue = 0.063"] ;
416 -> 417 ;
418 [label="X[4] <= 2.5\nmse = 0.0\nsamples = 14\nvalue = 0.063"] ;
417 -> 418 ;
419 [label="X[0] <= 1.5\nmse = 0.0\nsamples = 8\nvalue = 0.063"] ;
418 -> 419 ;
420 [label="X[1] <= 6.5\nmse = 0.0\nsamples = 3\nvalue = 0.062"] ;
419 -> 420 ;
421 [label="mse = 0.0\nsamples = 1\nvalue = 0.059"] ;
420 -> 421 ;
422 [label="mse = 0.0\nsamples = 2\nvalue = 0.064"] ;
420 -> 422 ;
423 [label="X[4] <= 1.5\nmse = 0.0\nsamples = 5\nvalue = 0.064"] ;
419 -> 423 ;
424 [label="mse = 0.0\nsamples = 3\nvalue = 0.062"] ;
423 -> 424 ;
425 [label="mse = 0.0\nsamples = 2\nvalue = 0.065"] ;
423 -> 425 ;
426 [label="X[1] <= 6.5\nmse = 0.0\nsamples = 6\nvalue = 0.062"] ;
418 -> 426 ;
427 [label="X[0] <= 1.5\nmse = 0.0\nsamples = 2\nvalue = 0.061"] ;
426 -> 427 ;
428 [label="mse = 0.0\nsamples = 1\nvalue = 0.06"] ;
427 -> 428 ;
429 [label="mse = -0.0\nsamples = 1\nvalue = 0.064"] ;
427 -> 429 ;
430 [label="X[0] <= 1.5\nmse = 0.0\nsamples = 4\nvalue = 0.063"] ;
426 -> 430 ;
431 [label="mse = 0.0\nsamples = 2\nvalue = 0.065"] ;
430 -> 431 ;
432 [label="mse = 0.0\nsamples = 2\nvalue = 0.061"] ;
430 -> 432 ;
433 [label="X[1] <= 6.5\nmse = 0.0\nsamples = 3\nvalue = 0.064"] ;
417 -> 433 ;
434 [label="mse = 0.0\nsamples = 1\nvalue = 0.063"] ;
433 -> 434 ;
435 [label="X[0] <= 1.5\nmse = 0.0\nsamples = 2\nvalue = 0.064"] ;
433 -> 435 ;
436 [label="mse = 0.0\nsamples = 1\nvalue = 0.064"] ;
435 -> 436 ;
437 [label="mse = 0.0\nsamples = 1\nvalue = 0.065"] ;
435 -> 437 ;
438 [label="X[0] <= 11.5\nmse = 0.0\nsamples = 97\nvalue = 0.065"] ;
416 -> 438 ;
439 [label="X[4] <= 1.5\nmse = 0.0\nsamples = 72\nvalue = 0.064"] ;
438 -> 439 ;
440 [label="X[1] <= 6.5\nmse = 0.0\nsamples = 26\nvalue = 0.065"] ;
439 -> 440 ;
441 [label="X[4] <= 0.5\nmse = 0.0\nsamples = 13\nvalue = 0.065"] ;
440 -> 441 ;
442 [label="mse = 0.0\nsamples = 6\nvalue = 0.065"] ;
441 -> 442 ;
443 [label="mse = 0.0\nsamples = 7\nvalue = 0.066"] ;
441 -> 443 ;
444 [label="X[0] <= 10.5\nmse = 0.0\nsamples = 13\nvalue = 0.064"] ;
440 -> 444 ;
445 [label="mse = 0.0\nsamples = 11\nvalue = 0.064"] ;
444 -> 445 ;
446 [label="mse = 0.0\nsamples = 2\nvalue = 0.066"] ;
444 -> 446 ;
447 [label="X[4] <= 3.5\nmse = 0.0\nsamples = 46\nvalue = 0.064"] ;
439 -> 447 ;
448 [label="X[0] <= 10.5\nmse = 0.0\nsamples = 25\nvalue = 0.064"] ;
447 -> 448 ;
449 [label="mse = 0.0\nsamples = 22\nvalue = 0.064"] ;
448 -> 449 ;
450 [label="mse = 0.0\nsamples = 3\nvalue = 0.061"] ;
448 -> 450 ;
451 [label="X[0] <= 10.5\nmse = 0.0\nsamples = 21\nvalue = 0.064"] ;
447 -> 451 ;
452 [label="mse = 0.0\nsamples = 18\nvalue = 0.064"] ;
451 -> 452 ;
453 [label="mse = 0.0\nsamples = 3\nvalue = 0.066"] ;
451 -> 453 ;
454 [label="X[4] <= 0.5\nmse = 0.0\nsamples = 25\nvalue = 0.065"] ;
438 -> 454 ;
455 [label="X[0] <= 12.5\nmse = 0.0\nsamples = 5\nvalue = 0.064"] ;
454 -> 455 ;
456 [label="mse = 0.0\nsamples = 1\nvalue = 0.066"] ;
455 -> 456 ;
457 [label="X[1] <= 6.5\nmse = 0.0\nsamples = 4\nvalue = 0.063"] ;
455 -> 457 ;
458 [label="mse = 0.0\nsamples = 2\nvalue = 0.062"] ;
457 -> 458 ;
459 [label="mse = 0.0\nsamples = 2\nvalue = 0.064"] ;
457 -> 459 ;
460 [label="X[4] <= 2.5\nmse = 0.0\nsamples = 20\nvalue = 0.066"] ;
454 -> 460 ;
461 [label="X[0] <= 14.0\nmse = 0.0\nsamples = 7\nvalue = 0.066"] ;
460 -> 461 ;
462 [label="mse = 0.0\nsamples = 4\nvalue = 0.067"] ;
461 -> 462 ;
463 [label="mse = 0.0\nsamples = 3\nvalue = 0.065"] ;
461 -> 463 ;
464 [label="X[4] <= 3.5\nmse = 0.0\nsamples = 13\nvalue = 0.065"] ;
460 -> 464 ;
465 [label="mse = 0.0\nsamples = 5\nvalue = 0.064"] ;
464 -> 465 ;
466 [label="mse = 0.0\nsamples = 8\nvalue = 0.066"] ;
464 -> 466 ;
467 [label="X[1] <= 1.5\nmse = 0.009\nsamples = 7027\nvalue = 0.022"] ;
1 -> 467 ;
468 [label="X[4] <= 11.5\nmse = 0.053\nsamples = 965\nvalue = 0.094"] ;
467 -> 468 ;
469 [label="X[2] <= 11.0\nmse = 0.111\nsamples = 285\nvalue = 0.324"] ;
468 -> 469 ;
470 [label="X[2] <= 3.0\nmse = 0.003\nsamples = 164\nvalue = 0.118"] ;
469 -> 470 ;
471 [label="X[0] <= 13.5\nmse = 0.0\nsamples = 54\nvalue = 0.04"] ;
470 -> 471 ;
472 [label="X[0] <= 2.5\nmse = 0.0\nsamples = 44\nvalue = 0.04"] ;
471 -> 472 ;
473 [label="X[0] <= 1.5\nmse = 0.0\nsamples = 6\nvalue = 0.039"] ;
472 -> 473 ;
474 [label="X[4] <= 6.5\nmse = 0.0\nsamples = 4\nvalue = 0.04"] ;
473 -> 474 ;
475 [label="mse = 0.0\nsamples = 1\nvalue = 0.041"] ;
474 -> 475 ;
476 [label="mse = 0.0\nsamples = 3\nvalue = 0.039"] ;
474 -> 476 ;
477 [label="X[4] <= 8.5\nmse = 0.0\nsamples = 2\nvalue = 0.037"] ;
473 -> 477 ;
478 [label="mse = 0.0\nsamples = 1\nvalue = 0.035"] ;
477 -> 478 ;
479 [label="mse = 0.0\nsamples = 1\nvalue = 0.039"] ;
477 -> 479 ;
480 [label="X[0] <= 3.5\nmse = 0.0\nsamples = 38\nvalue = 0.041"] ;
472 -> 480 ;
481 [label="X[4] <= 10.5\nmse = 0.0\nsamples = 3\nvalue = 0.044"] ;
480 -> 481 ;
482 [label="mse = 0.0\nsamples = 2\nvalue = 0.043"] ;
481 -> 482 ;
483 [label="mse = -0.0\nsamples = 1\nvalue = 0.045"] ;
481 -> 483 ;
484 [label="X[0] <= 11.5\nmse = 0.0\nsamples = 35\nvalue = 0.04"] ;
480 -> 484 ;
485 [label="mse = 0.0\nsamples = 29\nvalue = 0.04"] ;
484 -> 485 ;
486 [label="mse = 0.0\nsamples = 6\nvalue = 0.041"] ;
484 -> 486 ;
487 [label="X[4] <= 8.5\nmse = 0.0\nsamples = 10\nvalue = 0.039"] ;
471 -> 487 ;
488 [label="X[4] <= 7.5\nmse = 0.0\nsamples = 4\nvalue = 0.038"] ;
487 -> 488 ;
489 [label="X[4] <= 6.5\nmse = 0.0\nsamples = 2\nvalue = 0.04"] ;
488 -> 489 ;
490 [label="mse = 0.0\nsamples = 1\nvalue = 0.038"] ;
489 -> 490 ;
491 [label="mse = 0.0\nsamples = 1\nvalue = 0.042"] ;
489 -> 491 ;
492 [label="mse = 0.0\nsamples = 2\nvalue = 0.038"] ;
488 -> 492 ;
493 [label="X[0] <= 14.5\nmse = 0.0\nsamples = 6\nvalue = 0.04"] ;
487 -> 493 ;
494 [label="X[4] <= 10.5\nmse = 0.0\nsamples = 3\nvalue = 0.04"] ;
493 -> 494 ;
495 [label="mse = 0.0\nsamples = 2\nvalue = 0.04"] ;
494 -> 495 ;
496 [label="mse = 0.0\nsamples = 1\nvalue = 0.039"] ;
494 -> 496 ;
497 [label="X[4] <= 10.5\nmse = 0.0\nsamples = 3\nvalue = 0.039"] ;
493 -> 497 ;
498 [label="mse = 0.0\nsamples = 2\nvalue = 0.039"] ;
497 -> 498 ;
499 [label="mse = 0.0\nsamples = 1\nvalue = 0.041"] ;
497 -> 499 ;
500 [label="X[0] <= 14.5\nmse = 0.0\nsamples = 110\nvalue = 0.16"] ;
470 -> 500 ;
501 [label="X[4] <= 6.5\nmse = 0.0\nsamples = 103\nvalue = 0.16"] ;
500 -> 501 ;
502 [label="X[2] <= 7.0\nmse = 0.0\nsamples = 15\nvalue = 0.159"] ;
501 -> 502 ;
503 [label="X[0] <= 10.5\nmse = 0.0\nsamples = 9\nvalue = 0.161"] ;
502 -> 503 ;
504 [label="mse = 0.0\nsamples = 6\nvalue = 0.163"] ;
503 -> 504 ;
505 [label="mse = 0.0\nsamples = 3\nvalue = 0.158"] ;
503 -> 505 ;
506 [label="X[0] <= 12.0\nmse = 0.0\nsamples = 6\nvalue = 0.156"] ;
502 -> 506 ;
507 [label="mse = 0.0\nsamples = 5\nvalue = 0.156"] ;
506 -> 507 ;
508 [label="mse = 0.0\nsamples = 1\nvalue = 0.154"] ;
506 -> 508 ;
509 [label="X[0] <= 2.5\nmse = 0.0\nsamples = 88\nvalue = 0.161"] ;
501 -> 509 ;
510 [label="X[4] <= 10.5\nmse = 0.0\nsamples = 12\nvalue = 0.16"] ;
509 -> 510 ;
511 [label="mse = 0.0\nsamples = 9\nvalue = 0.158"] ;
510 -> 511 ;
512 [label="mse = 0.0\nsamples = 3\nvalue = 0.163"] ;
510 -> 512 ;
513 [label="X[0] <= 8.5\nmse = 0.0\nsamples = 76\nvalue = 0.161"] ;
509 -> 513 ;
514 [label="mse = 0.0\nsamples = 36\nvalue = 0.161"] ;
513 -> 514 ;
515 [label="mse = 0.0\nsamples = 40\nvalue = 0.16"] ;
513 -> 515 ;
516 [label="X[4] <= 10.5\nmse = 0.0\nsamples = 7\nvalue = 0.162"] ;
500 -> 516 ;
517 [label="X[4] <= 6.5\nmse = 0.0\nsamples = 6\nvalue = 0.163"] ;
516 -> 517 ;
518 [label="mse = 0.0\nsamples = 1\nvalue = 0.168"] ;
517 -> 518 ;
519 [label="X[4] <= 7.5\nmse = 0.0\nsamples = 5\nvalue = 0.162"] ;
517 -> 519 ;
520 [label="mse = 0.0\nsamples = 1\nvalue = 0.16"] ;
519 -> 520 ;
521 [label="mse = 0.0\nsamples = 4\nvalue = 0.163"] ;
519 -> 521 ;
522 [label="mse = -0.0\nsamples = 1\nvalue = 0.153"] ;
516 -> 522 ;
523 [label="X[2] <= 17.0\nmse = 0.114\nsamples = 121\nvalue = 0.628"] ;
469 -> 523 ;
524 [label="X[0] <= 10.5\nmse = 0.0\nsamples = 54\nvalue = 1.0"] ;
523 -> 524 ;
525 [label="X[0] <= 9.5\nmse = 0.0\nsamples = 35\nvalue = 0.999"] ;
524 -> 525 ;
526 [label="X[0] <= 7.5\nmse = 0.0\nsamples = 31\nvalue = 1.0"] ;
525 -> 526 ;
527 [label="X[4] <= 8.5\nmse = 0.0\nsamples = 24\nvalue = 0.999"] ;
526 -> 527 ;
528 [label="mse = 0.0\nsamples = 11\nvalue = 0.998"] ;
527 -> 528 ;
529 [label="mse = 0.0\nsamples = 13\nvalue = 1.0"] ;
527 -> 529 ;
530 [label="X[4] <= 8.5\nmse = 0.0\nsamples = 7\nvalue = 1.001"] ;
526 -> 530 ;
531 [label="mse = 0.0\nsamples = 4\nvalue = 1.003"] ;
530 -> 531 ;
532 [label="mse = 0.0\nsamples = 3\nvalue = 0.998"] ;
530 -> 532 ;
533 [label="X[4] <= 7.0\nmse = 0.0\nsamples = 4\nvalue = 0.997"] ;
525 -> 533 ;
534 [label="mse = 0.0\nsamples = 1\nvalue = 0.998"] ;
533 -> 534 ;
535 [label="X[4] <= 8.5\nmse = 0.0\nsamples = 3\nvalue = 0.996"] ;
533 -> 535 ;
536 [label="mse = 0.0\nsamples = 1\nvalue = 0.996"] ;
535 -> 536 ;
537 [label="mse = 0.0\nsamples = 2\nvalue = 0.996"] ;
535 -> 537 ;
538 [label="X[4] <= 10.5\nmse = 0.0\nsamples = 19\nvalue = 1.001"] ;
524 -> 538 ;
539 [label="X[4] <= 7.5\nmse = 0.0\nsamples = 18\nvalue = 1.001"] ;
538 -> 539 ;
540 [label="X[0] <= 11.5\nmse = 0.0\nsamples = 8\nvalue = 1.001"] ;
539 -> 540 ;
541 [label="mse = 0.0\nsamples = 2\nvalue = 1.005"] ;
540 -> 541 ;
542 [label="mse = 0.0\nsamples = 6\nvalue = 1.0"] ;
540 -> 542 ;
543 [label="X[0] <= 11.5\nmse = 0.0\nsamples = 10\nvalue = 1.0"] ;
539 -> 543 ;
544 [label="mse = 0.0\nsamples = 1\nvalue = 0.996"] ;
543 -> 544 ;
545 [label="mse = 0.0\nsamples = 9\nvalue = 1.001"] ;
543 -> 545 ;
546 [label="mse = 0.0\nsamples = 1\nvalue = 1.003"] ;
538 -> 546 ;
547 [label="X[4] <= 6.5\nmse = 0.0\nsamples = 67\nvalue = 0.32"] ;
523 -> 547 ;
548 [label="X[0] <= 13.5\nmse = 0.0\nsamples = 11\nvalue = 0.325"] ;
547 -> 548 ;
549 [label="X[0] <= 7.0\nmse = 0.0\nsamples = 9\nvalue = 0.326"] ;
548 -> 549 ;
550 [label="X[0] <= 5.5\nmse = 0.0\nsamples = 4\nvalue = 0.32"] ;
549 -> 550 ;
551 [label="mse = 0.0\nsamples = 3\nvalue = 0.322"] ;
550 -> 551 ;
552 [label="mse = -0.0\nsamples = 1\nvalue = 0.315"] ;
550 -> 552 ;
553 [label="X[0] <= 12.5\nmse = 0.0\nsamples = 5\nvalue = 0.328"] ;
549 -> 553 ;
554 [label="mse = 0.0\nsamples = 4\nvalue = 0.327"] ;
553 -> 554 ;
555 [label="mse = -0.0\nsamples = 1\nvalue = 0.331"] ;
553 -> 555 ;
556 [label="X[0] <= 14.5\nmse = 0.0\nsamples = 2\nvalue = 0.316"] ;
548 -> 556 ;
557 [label="mse = 0.0\nsamples = 1\nvalue = 0.313"] ;
556 -> 557 ;
558 [label="mse = 0.0\nsamples = 1\nvalue = 0.319"] ;
556 -> 558 ;
559 [label="X[4] <= 7.5\nmse = 0.0\nsamples = 56\nvalue = 0.319"] ;
547 -> 559 ;
560 [label="X[0] <= 8.5\nmse = 0.0\nsamples = 9\nvalue = 0.317"] ;
559 -> 560 ;
561 [label="X[0] <= 6.5\nmse = 0.0\nsamples = 5\nvalue = 0.315"] ;
560 -> 561 ;
562 [label="mse = 0.0\nsamples = 3\nvalue = 0.318"] ;
561 -> 562 ;
563 [label="mse = 0.0\nsamples = 2\nvalue = 0.312"] ;
561 -> 563 ;
564 [label="X[0] <= 12.0\nmse = 0.0\nsamples = 4\nvalue = 0.323"] ;
560 -> 564 ;
565 [label="mse = 0.0\nsamples = 2\nvalue = 0.331"] ;
564 -> 565 ;
566 [label="mse = 0.0\nsamples = 2\nvalue = 0.315"] ;
564 -> 566 ;
567 [label="X[0] <= 1.5\nmse = 0.0\nsamples = 47\nvalue = 0.32"] ;
559 -> 567 ;
568 [label="mse = 0.0\nsamples = 1\nvalue = 0.312"] ;
567 -> 568 ;
569 [label="X[4] <= 8.5\nmse = 0.0\nsamples = 46\nvalue = 0.32"] ;
567 -> 569 ;
570 [label="mse = 0.0\nsamples = 11\nvalue = 0.323"] ;
569 -> 570 ;
571 [label="mse = 0.0\nsamples = 35\nvalue = 0.319"] ;
569 -> 571 ;
572 [label="X[2] <= 7.0\nmse = 0.0\nsamples = 680\nvalue = 0.001"] ;
468 -> 572 ;
573 [label="X[4] <= 16.5\nmse = 0.0\nsamples = 223\nvalue = 0.001"] ;
572 -> 573 ;
574 [label="X[0] <= 6.5\nmse = 0.0\nsamples = 91\nvalue = 0.0"] ;
573 -> 574 ;
575 [label="X[0] <= 4.5\nmse = 0.0\nsamples = 35\nvalue = 0.001"] ;
574 -> 575 ;
576 [label="X[4] <= 12.5\nmse = 0.0\nsamples = 24\nvalue = 0.0"] ;
575 -> 576 ;
577 [label="X[0] <= 3.5\nmse = 0.0\nsamples = 4\nvalue = 0.001"] ;
576 -> 577 ;
578 [label="mse = 0.0\nsamples = 3\nvalue = 0.0"] ;
577 -> 578 ;
579 [label="mse = 0.0\nsamples = 1\nvalue = 0.003"] ;
577 -> 579 ;
580 [label="X[4] <= 15.5\nmse = 0.0\nsamples = 20\nvalue = 0.0"] ;
576 -> 580 ;
581 [label="mse = 0.0\nsamples = 16\nvalue = 0.0"] ;
580 -> 581 ;
582 [label="mse = 0.0\nsamples = 4\nvalue = 0.0"] ;
580 -> 582 ;
583 [label="X[4] <= 12.5\nmse = 0.0\nsamples = 11\nvalue = 0.001"] ;
575 -> 583 ;
584 [label="mse = 0.0\nsamples = 2\nvalue = 0.0"] ;
583 -> 584 ;
585 [label="X[4] <= 13.5\nmse = 0.0\nsamples = 9\nvalue = 0.001"] ;
583 -> 585 ;
586 [label="mse = 0.0\nsamples = 3\nvalue = 0.002"] ;
585 -> 586 ;
587 [label="mse = 0.0\nsamples = 6\nvalue = 0.001"] ;
585 -> 587 ;
588 [label="X[0] <= 10.5\nmse = 0.0\nsamples = 56\nvalue = 0.0"] ;
574 -> 588 ;
589 [label="X[4] <= 13.5\nmse = 0.0\nsamples = 21\nvalue = 0.0"] ;
588 -> 589 ;
590 [label="mse = 0.0\nsamples = 9\nvalue = 0.0"] ;
589 -> 590 ;
591 [label="X[4] <= 14.5\nmse = 0.0\nsamples = 12\nvalue = 0.0"] ;
589 -> 591 ;
592 [label="mse = 0.0\nsamples = 5\nvalue = 0.001"] ;
591 -> 592 ;
593 [label="mse = 0.0\nsamples = 7\nvalue = 0.0"] ;
591 -> 593 ;
594 [label="X[4] <= 13.5\nmse = 0.0\nsamples = 35\nvalue = 0.0"] ;
588 -> 594 ;
595 [label="X[2] <= 3.0\nmse = 0.0\nsamples = 15\nvalue = 0.0"] ;
594 -> 595 ;
596 [label="mse = 0.0\nsamples = 9\nvalue = 0.0"] ;
595 -> 596 ;
597 [label="mse = 0.0\nsamples = 6\nvalue = 0.0"] ;
595 -> 597 ;
598 [label="mse = 0.0\nsamples = 20\nvalue = 0.0"] ;
594 -> 598 ;
599 [label="X[0] <= 10.5\nmse = 0.0\nsamples = 132\nvalue = 0.001"] ;
573 -> 599 ;
600 [label="X[4] <= 19.5\nmse = 0.0\nsamples = 88\nvalue = 0.0"] ;
599 -> 600 ;
601 [label="X[0] <= 4.5\nmse = 0.0\nsamples = 34\nvalue = 0.0"] ;
600 -> 601 ;
602 [label="X[0] <= 2.5\nmse = 0.0\nsamples = 13\nvalue = 0.001"] ;
601 -> 602 ;
603 [label="mse = 0.0\nsamples = 6\nvalue = 0.0"] ;
602 -> 603 ;
604 [label="mse = 0.0\nsamples = 7\nvalue = 0.001"] ;
602 -> 604 ;
605 [label="mse = 0.0\nsamples = 21\nvalue = 0.0"] ;
601 -> 605 ;
606 [label="X[4] <= 21.5\nmse = 0.0\nsamples = 54\nvalue = 0.001"] ;
600 -> 606 ;
607 [label="X[0] <= 2.5\nmse = 0.0\nsamples = 28\nvalue = 0.001"] ;
606 -> 607 ;
608 [label="mse = 0.0\nsamples = 3\nvalue = 0.002"] ;
607 -> 608 ;
609 [label="mse = 0.0\nsamples = 25\nvalue = 0.001"] ;
607 -> 609 ;
610 [label="X[0] <= 8.5\nmse = 0.0\nsamples = 26\nvalue = 0.0"] ;
606 -> 610 ;
611 [label="mse = 0.0\nsamples = 20\nvalue = 0.0"] ;
610 -> 611 ;
612 [label="mse = 0.0\nsamples = 6\nvalue = 0.0"] ;
610 -> 612 ;
613 [label="X[4] <= 20.5\nmse = 0.0\nsamples = 44\nvalue = 0.001"] ;
599 -> 613 ;
614 [label="X[4] <= 19.5\nmse = 0.0\nsamples = 24\nvalue = 0.002"] ;
613 -> 614 ;
615 [label="X[0] <= 11.5\nmse = 0.0\nsamples = 16\nvalue = 0.001"] ;
614 -> 615 ;
616 [label="mse = 0.0\nsamples = 2\nvalue = 0.0"] ;
615 -> 616 ;
617 [label="mse = 0.0\nsamples = 14\nvalue = 0.001"] ;
615 -> 617 ;
618 [label="X[2] <= 3.0\nmse = 0.0\nsamples = 8\nvalue = 0.003"] ;
614 -> 618 ;
619 [label="mse = 0.0\nsamples = 3\nvalue = 0.004"] ;
618 -> 619 ;
620 [label="mse = 0.0\nsamples = 5\nvalue = 0.0"] ;
618 -> 620 ;
621 [label="X[0] <= 13.5\nmse = 0.0\nsamples = 20\nvalue = 0.0"] ;
613 -> 621 ;
622 [label="mse = 0.0\nsamples = 11\nvalue = 0.0"] ;
621 -> 622 ;
623 [label="X[0] <= 14.5\nmse = 0.0\nsamples = 9\nvalue = 0.001"] ;
621 -> 623 ;
624 [label="mse = 0.0\nsamples = 4\nvalue = 0.002"] ;
623 -> 624 ;
625 [label="mse = 0.0\nsamples = 5\nvalue = 0.0"] ;
623 -> 625 ;
626 [label="X[3] <= 2.5\nmse = 0.0\nsamples = 457\nvalue = 0.001"] ;
572 -> 626 ;
627 [label="X[0] <= 13.5\nmse = 0.0\nsamples = 236\nvalue = 0.001"] ;
626 -> 627 ;
628 [label="X[0] <= 3.5\nmse = 0.0\nsamples = 204\nvalue = 0.001"] ;
627 -> 628 ;
629 [label="X[4] <= 15.5\nmse = 0.0\nsamples = 52\nvalue = 0.001"] ;
628 -> 629 ;
630 [label="X[2] <= 11.0\nmse = 0.0\nsamples = 37\nvalue = 0.001"] ;
629 -> 630 ;
631 [label="mse = 0.0\nsamples = 9\nvalue = 0.001"] ;
630 -> 631 ;
632 [label="mse = 0.0\nsamples = 28\nvalue = 0.0"] ;
630 -> 632 ;
633 [label="X[4] <= 16.5\nmse = 0.0\nsamples = 15\nvalue = 0.002"] ;
629 -> 633 ;
634 [label="mse = 0.0\nsamples = 8\nvalue = 0.003"] ;
633 -> 634 ;
635 [label="mse = 0.0\nsamples = 7\nvalue = 0.001"] ;
633 -> 635 ;
636 [label="X[2] <= 15.0\nmse = 0.0\nsamples = 152\nvalue = 0.0"] ;
628 -> 636 ;
637 [label="X[0] <= 8.5\nmse = 0.0\nsamples = 77\nvalue = 0.0"] ;
636 -> 637 ;
638 [label="mse = 0.0\nsamples = 37\nvalue = 0.001"] ;
637 -> 638 ;
639 [label="mse = 0.0\nsamples = 40\nvalue = 0.0"] ;
637 -> 639 ;
640 [label="X[0] <= 9.5\nmse = 0.0\nsamples = 75\nvalue = 0.001"] ;
636 -> 640 ;
641 [label="mse = 0.0\nsamples = 46\nvalue = 0.0"] ;
640 -> 641 ;
642 [label="mse = 0.0\nsamples = 29\nvalue = 0.001"] ;
640 -> 642 ;
643 [label="X[2] <= 11.0\nmse = 0.0\nsamples = 32\nvalue = 0.002"] ;
627 -> 643 ;
644 [label="X[4] <= 15.5\nmse = 0.0\nsamples = 8\nvalue = 0.0"] ;
643 -> 644 ;
645 [label="X[4] <= 12.5\nmse = 0.0\nsamples = 6\nvalue = 0.0"] ;
644 -> 645 ;
646 [label="mse = 0.0\nsamples = 1\nvalue = 0.001"] ;
645 -> 646 ;
647 [label="mse = 0.0\nsamples = 5\nvalue = 0.0"] ;
645 -> 647 ;
648 [label="X[4] <= 16.5\nmse = 0.0\nsamples = 2\nvalue = 0.001"] ;
644 -> 648 ;
649 [label="mse = 0.0\nsamples = 1\nvalue = 0.001"] ;
648 -> 649 ;
650 [label="mse = 0.0\nsamples = 1\nvalue = 0.0"] ;
648 -> 650 ;
651 [label="X[4] <= 16.5\nmse = 0.0\nsamples = 24\nvalue = 0.002"] ;
643 -> 651 ;
652 [label="X[2] <= 15.0\nmse = 0.0\nsamples = 21\nvalue = 0.002"] ;
651 -> 652 ;
653 [label="mse = 0.0\nsamples = 7\nvalue = 0.001"] ;
652 -> 653 ;
654 [label="mse = 0.0\nsamples = 14\nvalue = 0.002"] ;
652 -> 654 ;
655 [label="X[2] <= 17.0\nmse = 0.0\nsamples = 3\nvalue = 0.003"] ;
651 -> 655 ;
656 [label="mse = 0.0\nsamples = 1\nvalue = 0.004"] ;
655 -> 656 ;
657 [label="mse = 0.0\nsamples = 2\nvalue = 0.001"] ;
655 -> 657 ;
658 [label="X[2] <= 19.0\nmse = 0.0\nsamples = 221\nvalue = 0.001"] ;
626 -> 658 ;
659 [label="X[0] <= 7.5\nmse = 0.0\nsamples = 161\nvalue = 0.002"] ;
658 -> 659 ;
660 [label="X[4] <= 20.5\nmse = 0.0\nsamples = 72\nvalue = 0.001"] ;
659 -> 660 ;
661 [label="X[0] <= 4.5\nmse = 0.0\nsamples = 40\nvalue = 0.001"] ;
660 -> 661 ;
662 [label="mse = 0.0\nsamples = 22\nvalue = 0.001"] ;
661 -> 662 ;
663 [label="mse = 0.0\nsamples = 18\nvalue = 0.001"] ;
661 -> 663 ;
664 [label="X[0] <= 5.5\nmse = 0.0\nsamples = 32\nvalue = 0.002"] ;
660 -> 664 ;
665 [label="mse = 0.0\nsamples = 25\nvalue = 0.002"] ;
664 -> 665 ;
666 [label="mse = 0.0\nsamples = 7\nvalue = 0.001"] ;
664 -> 666 ;
667 [label="X[0] <= 10.5\nmse = 0.0\nsamples = 89\nvalue = 0.002"] ;
659 -> 667 ;
668 [label="X[4] <= 18.5\nmse = 0.0\nsamples = 30\nvalue = 0.003"] ;
667 -> 668 ;
669 [label="mse = 0.0\nsamples = 4\nvalue = 0.0"] ;
668 -> 669 ;
670 [label="mse = 0.0\nsamples = 26\nvalue = 0.003"] ;
668 -> 670 ;
671 [label="X[4] <= 22.5\nmse = 0.0\nsamples = 59\nvalue = 0.002"] ;
667 -> 671 ;
672 [label="mse = 0.0\nsamples = 48\nvalue = 0.002"] ;
671 -> 672 ;
673 [label="mse = 0.0\nsamples = 11\nvalue = 0.001"] ;
671 -> 673 ;
674 [label="X[0] <= 8.5\nmse = 0.0\nsamples = 60\nvalue = 0.0"] ;
658 -> 674 ;
675 [label="X[4] <= 18.5\nmse = 0.0\nsamples = 28\nvalue = 0.0"] ;
674 -> 675 ;
676 [label="X[0] <= 3.0\nmse = 0.0\nsamples = 5\nvalue = 0.0"] ;
675 -> 676 ;
677 [label="mse = 0.0\nsamples = 2\nvalue = 0.0"] ;
676 -> 677 ;
678 [label="mse = 0.0\nsamples = 3\nvalue = 0.001"] ;
676 -> 678 ;
679 [label="mse = 0.0\nsamples = 23\nvalue = 0.0"] ;
675 -> 679 ;
680 [label="X[0] <= 9.5\nmse = 0.0\nsamples = 32\nvalue = 0.0"] ;
674 -> 680 ;
681 [label="X[4] <= 20.5\nmse = 0.0\nsamples = 4\nvalue = 0.001"] ;
680 -> 681 ;
682 [label="mse = 0.0\nsamples = 2\nvalue = 0.002"] ;
681 -> 682 ;
683 [label="mse = 0.0\nsamples = 2\nvalue = 0.0"] ;
681 -> 683 ;
684 [label="X[4] <= 22.5\nmse = 0.0\nsamples = 28\nvalue = 0.0"] ;
680 -> 684 ;
685 [label="mse = 0.0\nsamples = 23\nvalue = 0.0"] ;
684 -> 685 ;
686 [label="mse = 0.0\nsamples = 5\nvalue = 0.001"] ;
684 -> 686 ;
687 [label="X[1] <= 5.5\nmse = 0.001\nsamples = 6062\nvalue = 0.011"] ;
467 -> 687 ;
688 [label="X[1] <= 3.5\nmse = 0.001\nsamples = 4005\nvalue = 0.015"] ;
687 -> 688 ;
689 [label="X[2] <= 3.0\nmse = 0.0\nsamples = 2005\nvalue = 0.004"] ;
688 -> 689 ;
690 [label="X[3] <= 1.5\nmse = 0.002\nsamples = 334\nvalue = 0.019"] ;
689 -> 690 ;
691 [label="X[1] <= 2.5\nmse = 0.004\nsamples = 108\nvalue = 0.057"] ;
690 -> 691 ;
692 [label="X[0] <= 10.5\nmse = 0.0\nsamples = 53\nvalue = 0.12"] ;
691 -> 692 ;
693 [label="X[4] <= 6.5\nmse = 0.0\nsamples = 35\nvalue = 0.119"] ;
692 -> 693 ;
694 [label="mse = 0.0\nsamples = 8\nvalue = 0.121"] ;
693 -> 694 ;
695 [label="mse = 0.0\nsamples = 27\nvalue = 0.118"] ;
693 -> 695 ;
696 [label="X[0] <= 11.5\nmse = 0.0\nsamples = 18\nvalue = 0.121"] ;
692 -> 696 ;
697 [label="mse = 0.0\nsamples = 3\nvalue = 0.127"] ;
696 -> 697 ;
698 [label="mse = 0.0\nsamples = 15\nvalue = 0.12"] ;
696 -> 698 ;
699 [label="mse = -0.0\nsamples = 55\nvalue = 0.0"] ;
691 -> 699 ;
700 [label="X[0] <= 1.5\nmse = 0.0\nsamples = 226\nvalue = 0.0"] ;
690 -> 700 ;
701 [label="X[4] <= 18.0\nmse = 0.0\nsamples = 15\nvalue = 0.0"] ;
700 -> 701 ;
702 [label="X[4] <= 16.5\nmse = 0.0\nsamples = 7\nvalue = 0.0"] ;
701 -> 702 ;
703 [label="mse = 0.0\nsamples = 6\nvalue = 0.0"] ;
702 -> 703 ;
704 [label="mse = 0.0\nsamples = 1\nvalue = 0.002"] ;
702 -> 704 ;
705 [label="mse = 0.0\nsamples = 8\nvalue = 0.0"] ;
701 -> 705 ;
706 [label="X[0] <= 8.5\nmse = 0.0\nsamples = 211\nvalue = 0.001"] ;
700 -> 706 ;
707 [label="X[3] <= 2.5\nmse = 0.0\nsamples = 104\nvalue = 0.001"] ;
706 -> 707 ;
708 [label="mse = 0.0\nsamples = 54\nvalue = 0.0"] ;
707 -> 708 ;
709 [label="mse = 0.0\nsamples = 50\nvalue = 0.001"] ;
707 -> 709 ;
710 [label="X[0] <= 12.5\nmse = 0.0\nsamples = 107\nvalue = 0.0"] ;
706 -> 710 ;
711 [label="mse = 0.0\nsamples = 62\nvalue = 0.0"] ;
710 -> 711 ;
712 [label="mse = 0.0\nsamples = 45\nvalue = 0.001"] ;
710 -> 712 ;
713 [label="X[4] <= 11.5\nmse = 0.0\nsamples = 1671\nvalue = 0.002"] ;
689 -> 713 ;
714 [label="X[2] <= 15.0\nmse = 0.0\nsamples = 524\nvalue = 0.003"] ;
713 -> 714 ;
715 [label="X[2] <= 11.0\nmse = 0.0\nsamples = 308\nvalue = 0.005"] ;
714 -> 715 ;
716 [label="mse = -0.0\nsamples = 188\nvalue = 0.0"] ;
715 -> 716 ;
717 [label="X[4] <= 6.5\nmse = 0.0\nsamples = 120\nvalue = 0.013"] ;
715 -> 717 ;
718 [label="mse = 0.0\nsamples = 24\nvalue = 0.02"] ;
717 -> 718 ;
719 [label="mse = 0.0\nsamples = 96\nvalue = 0.011"] ;
717 -> 719 ;
720 [label="mse = 0.0\nsamples = 216\nvalue = 0.0"] ;
714 -> 720 ;
721 [label="X[4] <= 18.5\nmse = 0.0\nsamples = 1147\nvalue = 0.001"] ;
713 -> 721 ;
722 [label="X[2] <= 15.0\nmse = 0.0\nsamples = 681\nvalue = 0.001"] ;
721 -> 722 ;
723 [label="X[3] <= 2.5\nmse = 0.0\nsamples = 416\nvalue = 0.001"] ;
722 -> 723 ;
724 [label="mse = 0.0\nsamples = 355\nvalue = 0.0"] ;
723 -> 724 ;
725 [label="mse = 0.0\nsamples = 61\nvalue = 0.001"] ;
723 -> 725 ;
726 [label="X[2] <= 19.0\nmse = 0.0\nsamples = 265\nvalue = 0.001"] ;
722 -> 726 ;
727 [label="mse = 0.0\nsamples = 141\nvalue = 0.001"] ;
726 -> 727 ;
728 [label="mse = 0.0\nsamples = 124\nvalue = 0.001"] ;
726 -> 728 ;
729 [label="X[2] <= 7.0\nmse = 0.0\nsamples = 466\nvalue = 0.001"] ;
721 -> 729 ;
730 [label="X[4] <= 20.5\nmse = 0.0\nsamples = 99\nvalue = 0.0"] ;
729 -> 730 ;
731 [label="mse = 0.0\nsamples = 35\nvalue = 0.001"] ;
730 -> 731 ;
732 [label="mse = 0.0\nsamples = 64\nvalue = 0.0"] ;
730 -> 732 ;
733 [label="X[2] <= 19.0\nmse = 0.0\nsamples = 367\nvalue = 0.001"] ;
729 -> 733 ;
734 [label="mse = 0.0\nsamples = 289\nvalue = 0.002"] ;
733 -> 734 ;
735 [label="mse = 0.0\nsamples = 78\nvalue = 0.0"] ;
733 -> 735 ;
736 [label="X[3] <= 1.5\nmse = 0.002\nsamples = 2000\nvalue = 0.026"] ;
688 -> 736 ;
737 [label="X[2] <= 11.0\nmse = 0.0\nsamples = 673\nvalue = 0.002"] ;
736 -> 737 ;
738 [label="mse = -0.0\nsamples = 342\nvalue = 0.0"] ;
737 -> 738 ;
739 [label="X[2] <= 15.0\nmse = 0.0\nsamples = 331\nvalue = 0.004"] ;
737 -> 739 ;
740 [label="X[0] <= 6.5\nmse = 0.0\nsamples = 110\nvalue = 0.013"] ;
739 -> 740 ;
741 [label="X[0] <= 5.5\nmse = 0.0\nsamples = 44\nvalue = 0.018"] ;
740 -> 741 ;
742 [label="mse = 0.0\nsamples = 38\nvalue = 0.016"] ;
741 -> 742 ;
743 [label="mse = 0.0\nsamples = 6\nvalue = 0.04"] ;
741 -> 743 ;
744 [label="X[0] <= 14.5\nmse = 0.0\nsamples = 66\nvalue = 0.01"] ;
740 -> 744 ;
745 [label="mse = 0.0\nsamples = 58\nvalue = 0.009"] ;
744 -> 745 ;
746 [label="mse = 0.0\nsamples = 8\nvalue = 0.018"] ;
744 -> 746 ;
747 [label="mse = -0.0\nsamples = 221\nvalue = 0.0"] ;
739 -> 747 ;
748 [label="X[4] <= 17.5\nmse = 0.002\nsamples = 1327\nvalue = 0.038"] ;
736 -> 748 ;
749 [label="X[2] <= 15.0\nmse = 0.003\nsamples = 664\nvalue = 0.064"] ;
748 -> 749 ;
750 [label="X[2] <= 7.0\nmse = 0.001\nsamples = 467\nvalue = 0.034"] ;
749 -> 750 ;
751 [label="X[1] <= 4.5\nmse = 0.001\nsamples = 226\nvalue = 0.027"] ;
750 -> 751 ;
752 [label="mse = 0.001\nsamples = 112\nvalue = 0.02"] ;
751 -> 752 ;
753 [label="mse = 0.001\nsamples = 114\nvalue = 0.034"] ;
751 -> 753 ;
754 [label="X[4] <= 15.5\nmse = 0.001\nsamples = 241\nvalue = 0.041"] ;
750 -> 754 ;
755 [label="mse = 0.001\nsamples = 160\nvalue = 0.039"] ;
754 -> 755 ;
756 [label="mse = 0.001\nsamples = 81\nvalue = 0.045"] ;
754 -> 756 ;
757 [label="X[2] <= 19.0\nmse = 0.002\nsamples = 197\nvalue = 0.129"] ;
749 -> 757 ;
758 [label="X[0] <= 14.5\nmse = 0.001\nsamples = 110\nvalue = 0.157"] ;
757 -> 758 ;
759 [label="mse = 0.001\nsamples = 102\nvalue = 0.156"] ;
758 -> 759 ;
760 [label="mse = 0.001\nsamples = 8\nvalue = 0.173"] ;
758 -> 760 ;
761 [label="X[4] <= 15.5\nmse = 0.001\nsamples = 87\nvalue = 0.093"] ;
757 -> 761 ;
762 [label="mse = 0.001\nsamples = 59\nvalue = 0.089"] ;
761 -> 762 ;
763 [label="mse = 0.001\nsamples = 28\nvalue = 0.103"] ;
761 -> 763 ;
764 [label="X[2] <= 7.0\nmse = 0.0\nsamples = 663\nvalue = 0.011"] ;
748 -> 764 ;
765 [label="X[1] <= 4.5\nmse = 0.0\nsamples = 211\nvalue = 0.004"] ;
764 -> 765 ;
766 [label="X[2] <= 3.0\nmse = 0.0\nsamples = 104\nvalue = 0.003"] ;
765 -> 766 ;
767 [label="mse = 0.0\nsamples = 56\nvalue = 0.002"] ;
766 -> 767 ;
768 [label="mse = 0.0\nsamples = 48\nvalue = 0.005"] ;
766 -> 768 ;
769 [label="X[0] <= 6.5\nmse = 0.0\nsamples = 107\nvalue = 0.005"] ;
765 -> 769 ;
770 [label="mse = 0.0\nsamples = 48\nvalue = 0.006"] ;
769 -> 770 ;
771 [label="mse = 0.0\nsamples = 59\nvalue = 0.005"] ;
769 -> 771 ;
772 [label="X[2] <= 19.0\nmse = 0.0\nsamples = 452\nvalue = 0.014"] ;
764 -> 772 ;
773 [label="X[2] <= 15.0\nmse = 0.0\nsamples = 337\nvalue = 0.018"] ;
772 -> 773 ;
774 [label="mse = 0.0\nsamples = 239\nvalue = 0.019"] ;
773 -> 774 ;
775 [label="mse = 0.0\nsamples = 98\nvalue = 0.015"] ;
773 -> 775 ;
776 [label="X[0] <= 2.5\nmse = 0.0\nsamples = 115\nvalue = 0.005"] ;
772 -> 776 ;
777 [label="mse = 0.0\nsamples = 17\nvalue = 0.008"] ;
776 -> 777 ;
778 [label="mse = 0.0\nsamples = 98\nvalue = 0.005"] ;
776 -> 778 ;
779 [label="X[2] <= 3.0\nmse = 0.0\nsamples = 2057\nvalue = 0.003"] ;
687 -> 779 ;
780 [label="X[1] <= 6.5\nmse = 0.001\nsamples = 351\nvalue = 0.014"] ;
779 -> 780 ;
781 [label="X[4] <= 11.5\nmse = 0.002\nsamples = 178\nvalue = 0.028"] ;
780 -> 781 ;
782 [label="mse = 0.0\nsamples = 66\nvalue = 0.0"] ;
781 -> 782 ;
783 [label="X[4] <= 17.5\nmse = 0.003\nsamples = 112\nvalue = 0.043"] ;
781 -> 783 ;
784 [label="X[4] <= 12.5\nmse = 0.003\nsamples = 62\nvalue = 0.075"] ;
783 -> 784 ;
785 [label="X[0] <= 10.5\nmse = 0.001\nsamples = 8\nvalue = 0.039"] ;
784 -> 785 ;
786 [label="mse = 0.001\nsamples = 5\nvalue = 0.051"] ;
785 -> 786 ;
787 [label="mse = 0.0\nsamples = 3\nvalue = 0.013"] ;
785 -> 787 ;
788 [label="X[0] <= 14.5\nmse = 0.004\nsamples = 54\nvalue = 0.079"] ;
784 -> 788 ;
789 [label="mse = 0.004\nsamples = 50\nvalue = 0.075"] ;
788 -> 789 ;
790 [label="mse = 0.0\nsamples = 4\nvalue = 0.122"] ;
788 -> 790 ;
791 [label="X[0] <= 12.5\nmse = 0.0\nsamples = 50\nvalue = 0.004"] ;
783 -> 791 ;
792 [label="X[0] <= 10.5\nmse = 0.0\nsamples = 40\nvalue = 0.004"] ;
791 -> 792 ;
793 [label="mse = 0.0\nsamples = 34\nvalue = 0.004"] ;
792 -> 793 ;
794 [label="mse = 0.0\nsamples = 6\nvalue = 0.0"] ;
792 -> 794 ;
795 [label="X[4] <= 22.5\nmse = 0.0\nsamples = 10\nvalue = 0.007"] ;
791 -> 795 ;
796 [label="mse = 0.0\nsamples = 9\nvalue = 0.006"] ;
795 -> 796 ;
797 [label="mse = -0.0\nsamples = 1\nvalue = 0.018"] ;
795 -> 797 ;
798 [label="X[3] <= 1.5\nmse = 0.0\nsamples = 173\nvalue = 0.0"] ;
780 -> 798 ;
799 [label="mse = 0.0\nsamples = 57\nvalue = 0.0"] ;
798 -> 799 ;
800 [label="X[0] <= 6.5\nmse = 0.0\nsamples = 116\nvalue = 0.001"] ;
798 -> 800 ;
801 [label="X[0] <= 1.5\nmse = 0.0\nsamples = 46\nvalue = 0.001"] ;
800 -> 801 ;
802 [label="mse = 0.0\nsamples = 8\nvalue = 0.0"] ;
801 -> 802 ;
803 [label="X[4] <= 12.5\nmse = 0.0\nsamples = 38\nvalue = 0.001"] ;
801 -> 803 ;
804 [label="mse = 0.0\nsamples = 4\nvalue = 0.002"] ;
803 -> 804 ;
805 [label="mse = 0.0\nsamples = 34\nvalue = 0.001"] ;
803 -> 805 ;
806 [label="X[4] <= 22.5\nmse = 0.0\nsamples = 70\nvalue = 0.0"] ;
800 -> 806 ;
807 [label="X[4] <= 15.5\nmse = 0.0\nsamples = 66\nvalue = 0.0"] ;
806 -> 807 ;
808 [label="mse = 0.0\nsamples = 21\nvalue = 0.0"] ;
807 -> 808 ;
809 [label="mse = 0.0\nsamples = 45\nvalue = 0.0"] ;
807 -> 809 ;
810 [label="X[0] <= 13.0\nmse = 0.0\nsamples = 4\nvalue = 0.002"] ;
806 -> 810 ;
811 [label="mse = 0.0\nsamples = 2\nvalue = 0.004"] ;
810 -> 811 ;
812 [label="mse = 0.0\nsamples = 2\nvalue = 0.001"] ;
810 -> 812 ;
813 [label="X[2] <= 11.0\nmse = 0.0\nsamples = 1706\nvalue = 0.001"] ;
779 -> 813 ;
814 [label="X[3] <= 2.5\nmse = 0.0\nsamples = 703\nvalue = 0.0"] ;
813 -> 814 ;
815 [label="X[4] <= 11.5\nmse = 0.0\nsamples = 464\nvalue = 0.0"] ;
814 -> 815 ;
816 [label="mse = 0.0\nsamples = 231\nvalue = 0.0"] ;
815 -> 816 ;
817 [label="X[0] <= 13.5\nmse = 0.0\nsamples = 233\nvalue = 0.0"] ;
815 -> 817 ;
818 [label="X[0] <= 2.5\nmse = 0.0\nsamples = 198\nvalue = 0.0"] ;
817 -> 818 ;
819 [label="mse = 0.0\nsamples = 31\nvalue = 0.0"] ;
818 -> 819 ;
820 [label="mse = 0.0\nsamples = 167\nvalue = 0.0"] ;
818 -> 820 ;
821 [label="X[4] <= 14.5\nmse = 0.0\nsamples = 35\nvalue = 0.0"] ;
817 -> 821 ;
822 [label="mse = 0.0\nsamples = 18\nvalue = 0.0"] ;
821 -> 822 ;
823 [label="mse = 0.0\nsamples = 17\nvalue = 0.0"] ;
821 -> 823 ;
824 [label="X[2] <= 7.0\nmse = 0.0\nsamples = 239\nvalue = 0.001"] ;
814 -> 824 ;
825 [label="X[0] <= 4.5\nmse = 0.0\nsamples = 121\nvalue = 0.001"] ;
824 -> 825 ;
826 [label="X[1] <= 6.5\nmse = 0.0\nsamples = 31\nvalue = 0.0"] ;
825 -> 826 ;
827 [label="mse = 0.0\nsamples = 13\nvalue = 0.001"] ;
826 -> 827 ;
828 [label="mse = 0.0\nsamples = 18\nvalue = 0.0"] ;
826 -> 828 ;
829 [label="X[0] <= 5.5\nmse = 0.0\nsamples = 90\nvalue = 0.001"] ;
825 -> 829 ;
830 [label="mse = 0.0\nsamples = 6\nvalue = 0.003"] ;
829 -> 830 ;
831 [label="mse = 0.0\nsamples = 84\nvalue = 0.001"] ;
829 -> 831 ;
832 [label="X[0] <= 7.5\nmse = 0.0\nsamples = 118\nvalue = 0.001"] ;
824 -> 832 ;
833 [label="X[0] <= 3.5\nmse = 0.0\nsamples = 51\nvalue = 0.002"] ;
832 -> 833 ;
834 [label="mse = 0.0\nsamples = 20\nvalue = 0.001"] ;
833 -> 834 ;
835 [label="mse = 0.0\nsamples = 31\nvalue = 0.002"] ;
833 -> 835 ;
836 [label="X[1] <= 6.5\nmse = 0.0\nsamples = 67\nvalue = 0.001"] ;
832 -> 836 ;
837 [label="mse = 0.0\nsamples = 32\nvalue = 0.001"] ;
836 -> 837 ;
838 [label="mse = 0.0\nsamples = 35\nvalue = 0.001"] ;
836 -> 838 ;
839 [label="X[2] <= 15.0\nmse = 0.0\nsamples = 1003\nvalue = 0.002"] ;
813 -> 839 ;
840 [label="X[4] <= 11.5\nmse = 0.0\nsamples = 331\nvalue = 0.004"] ;
839 -> 840 ;
841 [label="X[0] <= 3.5\nmse = 0.0\nsamples = 114\nvalue = 0.01"] ;
840 -> 841 ;
842 [label="X[4] <= 6.5\nmse = 0.0\nsamples = 26\nvalue = 0.014"] ;
841 -> 842 ;
843 [label="mse = 0.0\nsamples = 5\nvalue = 0.009"] ;
842 -> 843 ;
844 [label="mse = 0.0\nsamples = 21\nvalue = 0.015"] ;
842 -> 844 ;
845 [label="X[0] <= 11.5\nmse = 0.0\nsamples = 88\nvalue = 0.009"] ;
841 -> 845 ;
846 [label="mse = 0.0\nsamples = 63\nvalue = 0.007"] ;
845 -> 846 ;
847 [label="mse = 0.0\nsamples = 25\nvalue = 0.012"] ;
845 -> 847 ;
848 [label="X[4] <= 20.5\nmse = 0.0\nsamples = 217\nvalue = 0.001"] ;
840 -> 848 ;
849 [label="X[0] <= 14.5\nmse = 0.0\nsamples = 164\nvalue = 0.001"] ;
848 -> 849 ;
850 [label="mse = 0.0\nsamples = 154\nvalue = 0.001"] ;
849 -> 850 ;
851 [label="mse = 0.0\nsamples = 10\nvalue = 0.002"] ;
849 -> 851 ;
852 [label="X[0] <= 7.5\nmse = 0.0\nsamples = 53\nvalue = 0.002"] ;
848 -> 852 ;
853 [label="mse = 0.0\nsamples = 22\nvalue = 0.003"] ;
852 -> 853 ;
854 [label="mse = 0.0\nsamples = 31\nvalue = 0.001"] ;
852 -> 854 ;
855 [label="X[4] <= 11.5\nmse = 0.0\nsamples = 672\nvalue = 0.001"] ;
839 -> 855 ;
856 [label="mse = 0.0\nsamples = 225\nvalue = 0.0"] ;
855 -> 856 ;
857 [label="X[4] <= 14.5\nmse = 0.0\nsamples = 447\nvalue = 0.001"] ;
855 -> 857 ;
858 [label="X[0] <= 1.5\nmse = 0.0\nsamples = 114\nvalue = 0.001"] ;
857 -> 858 ;
859 [label="mse = 0.0\nsamples = 9\nvalue = 0.002"] ;
858 -> 859 ;
860 [label="mse = 0.0\nsamples = 105\nvalue = 0.0"] ;
858 -> 860 ;
861 [label="X[2] <= 19.0\nmse = 0.0\nsamples = 333\nvalue = 0.001"] ;
857 -> 861 ;
862 [label="mse = 0.0\nsamples = 165\nvalue = 0.001"] ;
861 -> 862 ;
863 [label="mse = 0.0\nsamples = 168\nvalue = 0.001"] ;
861 -> 863 ;
864 [label="X[1] <= 5.5\nmse = 0.011\nsamples = 2385\nvalue = 0.135"] ;
0 -> 864 [labeldistance=2.5, labelangle=-45, headlabel="False"] ;
865 [label="X[2] <= 15.0\nmse = 0.001\nsamples = 1687\nvalue = 0.086"] ;
864 -> 865 ;
866 [label="X[2] <= 7.0\nmse = 0.001\nsamples = 1121\nvalue = 0.093"] ;
865 -> 866 ;
867 [label="X[1] <= 1.5\nmse = 0.001\nsamples = 575\nvalue = 0.08"] ;
866 -> 867 ;
868 [label="X[2] <= 3.0\nmse = 0.002\nsamples = 105\nvalue = 0.11"] ;
867 -> 868 ;
869 [label="X[0] <= 1.5\nmse = 0.002\nsamples = 54\nvalue = 0.151"] ;
868 -> 869 ;
870 [label="X[4] <= 24.5\nmse = 0.0\nsamples = 5\nvalue = 0.02"] ;
869 -> 870 ;
871 [label="mse = 0.0\nsamples = 1\nvalue = 0.018"] ;
870 -> 871 ;
872 [label="X[4] <= 28.5\nmse = 0.0\nsamples = 4\nvalue = 0.02"] ;
870 -> 872 ;
873 [label="X[4] <= 27.5\nmse = 0.0\nsamples = 3\nvalue = 0.021"] ;
872 -> 873 ;
874 [label="mse = 0.0\nsamples = 2\nvalue = 0.02"] ;
873 -> 874 ;
875 [label="mse = -0.0\nsamples = 1\nvalue = 0.021"] ;
873 -> 875 ;
876 [label="mse = -0.0\nsamples = 1\nvalue = 0.02"] ;
872 -> 876 ;
877 [label="X[0] <= 2.5\nmse = 0.0\nsamples = 49\nvalue = 0.162"] ;
869 -> 877 ;
878 [label="X[4] <= 28.5\nmse = 0.001\nsamples = 2\nvalue = 0.135"] ;
877 -> 878 ;
879 [label="mse = 0.0\nsamples = 1\nvalue = 0.1"] ;
878 -> 879 ;
880 [label="mse = -0.0\nsamples = 1\nvalue = 0.17"] ;
878 -> 880 ;
881 [label="X[0] <= 10.5\nmse = 0.0\nsamples = 47\nvalue = 0.163"] ;
877 -> 881 ;
882 [label="X[4] <= 28.5\nmse = 0.0\nsamples = 29\nvalue = 0.165"] ;
881 -> 882 ;
883 [label="mse = 0.0\nsamples = 25\nvalue = 0.168"] ;
882 -> 883 ;
884 [label="mse = 0.002\nsamples = 4\nvalue = 0.133"] ;
882 -> 884 ;
885 [label="X[0] <= 11.5\nmse = 0.0\nsamples = 18\nvalue = 0.159"] ;
881 -> 885 ;
886 [label="mse = 0.0\nsamples = 4\nvalue = 0.139"] ;
885 -> 886 ;
887 [label="mse = 0.0\nsamples = 14\nvalue = 0.165"] ;
885 -> 887 ;
888 [label="X[4] <= 28.5\nmse = 0.0\nsamples = 51\nvalue = 0.073"] ;
868 -> 888 ;
889 [label="X[0] <= 4.5\nmse = 0.0\nsamples = 41\nvalue = 0.072"] ;
888 -> 889 ;
890 [label="X[4] <= 24.5\nmse = 0.0\nsamples = 7\nvalue = 0.067"] ;
889 -> 890 ;
891 [label="mse = 0.0\nsamples = 1\nvalue = 0.039"] ;
890 -> 891 ;
892 [label="X[4] <= 26.0\nmse = 0.0\nsamples = 6\nvalue = 0.069"] ;
890 -> 892 ;
893 [label="mse = 0.0\nsamples = 3\nvalue = 0.073"] ;
892 -> 893 ;
894 [label="mse = 0.0\nsamples = 3\nvalue = 0.065"] ;
892 -> 894 ;
895 [label="X[0] <= 12.5\nmse = 0.0\nsamples = 34\nvalue = 0.073"] ;
889 -> 895 ;
896 [label="X[0] <= 11.5\nmse = 0.0\nsamples = 26\nvalue = 0.072"] ;
895 -> 896 ;
897 [label="mse = 0.0\nsamples = 22\nvalue = 0.073"] ;
896 -> 897 ;
898 [label="mse = 0.0\nsamples = 4\nvalue = 0.067"] ;
896 -> 898 ;
899 [label="X[4] <= 25.5\nmse = 0.0\nsamples = 8\nvalue = 0.076"] ;
895 -> 899 ;
900 [label="mse = 0.0\nsamples = 4\nvalue = 0.068"] ;
899 -> 900 ;
901 [label="mse = 0.0\nsamples = 4\nvalue = 0.081"] ;
899 -> 901 ;
902 [label="X[0] <= 14.0\nmse = 0.0\nsamples = 10\nvalue = 0.076"] ;
888 -> 902 ;
903 [label="X[0] <= 5.0\nmse = 0.0\nsamples = 9\nvalue = 0.078"] ;
902 -> 903 ;
904 [label="X[0] <= 3.0\nmse = 0.0\nsamples = 3\nvalue = 0.075"] ;
903 -> 904 ;
905 [label="mse = 0.0\nsamples = 2\nvalue = 0.08"] ;
904 -> 905 ;
906 [label="mse = -0.0\nsamples = 1\nvalue = 0.058"] ;
904 -> 906 ;
907 [label="X[0] <= 6.5\nmse = 0.0\nsamples = 6\nvalue = 0.081"] ;
903 -> 907 ;
908 [label="mse = 0.0\nsamples = 1\nvalue = 0.083"] ;
907 -> 908 ;
909 [label="mse = 0.0\nsamples = 5\nvalue = 0.08"] ;
907 -> 909 ;
910 [label="mse = -0.0\nsamples = 1\nvalue = 0.063"] ;
902 -> 910 ;
911 [label="X[4] <= 27.5\nmse = 0.0\nsamples = 470\nvalue = 0.073"] ;
867 -> 911 ;
912 [label="X[1] <= 4.5\nmse = 0.0\nsamples = 321\nvalue = 0.073"] ;
911 -> 912 ;
913 [label="X[0] <= 3.5\nmse = 0.0\nsamples = 245\nvalue = 0.074"] ;
912 -> 913 ;
914 [label="X[4] <= 26.5\nmse = 0.0\nsamples = 52\nvalue = 0.077"] ;
913 -> 914 ;
915 [label="X[1] <= 3.5\nmse = 0.0\nsamples = 38\nvalue = 0.077"] ;
914 -> 915 ;
916 [label="mse = 0.0\nsamples = 23\nvalue = 0.076"] ;
915 -> 916 ;
917 [label="mse = 0.0\nsamples = 15\nvalue = 0.08"] ;
915 -> 917 ;
918 [label="X[2] <= 3.0\nmse = 0.0\nsamples = 14\nvalue = 0.075"] ;
914 -> 918 ;
919 [label="mse = 0.0\nsamples = 7\nvalue = 0.073"] ;
918 -> 919 ;
920 [label="mse = 0.0\nsamples = 7\nvalue = 0.077"] ;
918 -> 920 ;
921 [label="X[0] <= 4.5\nmse = 0.0\nsamples = 193\nvalue = 0.074"] ;
913 -> 921 ;
922 [label="X[1] <= 3.5\nmse = 0.0\nsamples = 15\nvalue = 0.072"] ;
921 -> 922 ;
923 [label="mse = 0.0\nsamples = 9\nvalue = 0.076"] ;
922 -> 923 ;
924 [label="mse = 0.0\nsamples = 6\nvalue = 0.065"] ;
922 -> 924 ;
925 [label="X[4] <= 24.5\nmse = 0.0\nsamples = 178\nvalue = 0.074"] ;
921 -> 925 ;
926 [label="mse = 0.0\nsamples = 43\nvalue = 0.073"] ;
925 -> 926 ;
927 [label="mse = 0.0\nsamples = 135\nvalue = 0.074"] ;
925 -> 927 ;
928 [label="X[0] <= 1.5\nmse = 0.0\nsamples = 76\nvalue = 0.071"] ;
912 -> 928 ;
929 [label="X[2] <= 3.0\nmse = 0.0\nsamples = 5\nvalue = 0.054"] ;
928 -> 929 ;
930 [label="X[4] <= 24.5\nmse = 0.0\nsamples = 3\nvalue = 0.067"] ;
929 -> 930 ;
931 [label="mse = 0.0\nsamples = 1\nvalue = 0.081"] ;
930 -> 931 ;
932 [label="mse = 0.0\nsamples = 2\nvalue = 0.058"] ;
930 -> 932 ;
933 [label="X[4] <= 24.5\nmse = 0.0\nsamples = 2\nvalue = 0.04"] ;
929 -> 933 ;
934 [label="mse = 0.0\nsamples = 1\nvalue = 0.041"] ;
933 -> 934 ;
935 [label="mse = 0.0\nsamples = 1\nvalue = 0.04"] ;
933 -> 935 ;
936 [label="X[4] <= 26.5\nmse = 0.0\nsamples = 71\nvalue = 0.073"] ;
928 -> 936 ;
937 [label="X[0] <= 2.5\nmse = 0.0\nsamples = 56\nvalue = 0.071"] ;
936 -> 937 ;
938 [label="mse = 0.0\nsamples = 3\nvalue = 0.059"] ;
937 -> 938 ;
939 [label="mse = 0.0\nsamples = 53\nvalue = 0.071"] ;
937 -> 939 ;
940 [label="X[0] <= 5.5\nmse = 0.0\nsamples = 15\nvalue = 0.079"] ;
936 -> 940 ;
941 [label="mse = 0.0\nsamples = 4\nvalue = 0.074"] ;
940 -> 941 ;
942 [label="mse = 0.0\nsamples = 11\nvalue = 0.081"] ;
940 -> 942 ;
943 [label="X[0] <= 1.5\nmse = 0.0\nsamples = 149\nvalue = 0.071"] ;
911 -> 943 ;
944 [label="X[1] <= 2.5\nmse = 0.0\nsamples = 14\nvalue = 0.064"] ;
943 -> 944 ;
945 [label="X[4] <= 28.5\nmse = 0.0\nsamples = 3\nvalue = 0.055"] ;
944 -> 945 ;
946 [label="mse = 0.0\nsamples = 1\nvalue = 0.08"] ;
945 -> 946 ;
947 [label="X[2] <= 3.0\nmse = 0.0\nsamples = 2\nvalue = 0.046"] ;
945 -> 947 ;
948 [label="mse = 0.0\nsamples = 1\nvalue = 0.06"] ;
947 -> 948 ;
949 [label="mse = -0.0\nsamples = 1\nvalue = 0.039"] ;
947 -> 949 ;
950 [label="X[4] <= 28.5\nmse = 0.0\nsamples = 11\nvalue = 0.067"] ;
944 -> 950 ;
951 [label="X[1] <= 3.5\nmse = 0.0\nsamples = 5\nvalue = 0.06"] ;
950 -> 951 ;
952 [label="mse = 0.0\nsamples = 1\nvalue = 0.079"] ;
951 -> 952 ;
953 [label="mse = 0.0\nsamples = 4\nvalue = 0.054"] ;
951 -> 953 ;
954 [label="X[1] <= 4.5\nmse = 0.0\nsamples = 6\nvalue = 0.074"] ;
950 -> 954 ;
955 [label="mse = 0.0\nsamples = 4\nvalue = 0.07"] ;
954 -> 955 ;
956 [label="mse = 0.0\nsamples = 2\nvalue = 0.08"] ;
954 -> 956 ;
957 [label="X[0] <= 2.5\nmse = 0.0\nsamples = 135\nvalue = 0.071"] ;
943 -> 957 ;
958 [label="X[1] <= 3.5\nmse = 0.0\nsamples = 11\nvalue = 0.078"] ;
957 -> 958 ;
959 [label="X[1] <= 2.5\nmse = 0.0\nsamples = 7\nvalue = 0.076"] ;
958 -> 959 ;
960 [label="mse = 0.0\nsamples = 4\nvalue = 0.081"] ;
959 -> 960 ;
961 [label="mse = 0.0\nsamples = 3\nvalue = 0.066"] ;
959 -> 961 ;
962 [label="X[1] <= 4.5\nmse = 0.0\nsamples = 4\nvalue = 0.081"] ;
958 -> 962 ;
963 [label="mse = 0.0\nsamples = 2\nvalue = 0.081"] ;
962 -> 963 ;
964 [label="mse = 0.0\nsamples = 2\nvalue = 0.081"] ;
962 -> 964 ;
965 [label="X[1] <= 2.5\nmse = 0.0\nsamples = 124\nvalue = 0.071"] ;
957 -> 965 ;
966 [label="X[0] <= 4.5\nmse = 0.0\nsamples = 31\nvalue = 0.073"] ;
965 -> 966 ;
967 [label="mse = 0.0\nsamples = 4\nvalue = 0.082"] ;
966 -> 967 ;
968 [label="mse = 0.0\nsamples = 27\nvalue = 0.072"] ;
966 -> 968 ;
969 [label="X[1] <= 4.5\nmse = 0.0\nsamples = 93\nvalue = 0.07"] ;
965 -> 969 ;
970 [label="mse = 0.0\nsamples = 62\nvalue = 0.068"] ;
969 -> 970 ;
971 [label="mse = 0.0\nsamples = 31\nvalue = 0.072"] ;
969 -> 971 ;
972 [label="X[2] <= 11.0\nmse = 0.0\nsamples = 546\nvalue = 0.106"] ;
866 -> 972 ;
973 [label="X[1] <= 1.5\nmse = 0.0\nsamples = 287\nvalue = 0.118"] ;
972 -> 973 ;
974 [label="X[0] <= 1.5\nmse = 0.0\nsamples = 63\nvalue = 0.119"] ;
973 -> 974 ;
975 [label="X[4] <= 25.5\nmse = 0.0\nsamples = 5\nvalue = 0.108"] ;
974 -> 975 ;
976 [label="X[4] <= 24.5\nmse = 0.0\nsamples = 2\nvalue = 0.088"] ;
975 -> 976 ;
977 [label="mse = 0.0\nsamples = 1\nvalue = 0.097"] ;
976 -> 977 ;
978 [label="mse = 0.0\nsamples = 1\nvalue = 0.08"] ;
976 -> 978 ;
979 [label="X[4] <= 28.5\nmse = 0.0\nsamples = 3\nvalue = 0.121"] ;
975 -> 979 ;
980 [label="X[4] <= 27.0\nmse = 0.0\nsamples = 2\nvalue = 0.121"] ;
979 -> 980 ;
981 [label="mse = 0.0\nsamples = 1\nvalue = 0.12"] ;
980 -> 981 ;
982 [label="mse = -0.0\nsamples = 1\nvalue = 0.122"] ;
980 -> 982 ;
983 [label="mse = 0.0\nsamples = 1\nvalue = 0.12"] ;
979 -> 983 ;
984 [label="X[0] <= 7.5\nmse = 0.0\nsamples = 58\nvalue = 0.119"] ;
974 -> 984 ;
985 [label="X[0] <= 2.5\nmse = 0.0\nsamples = 25\nvalue = 0.12"] ;
984 -> 985 ;
986 [label="X[4] <= 28.5\nmse = 0.0\nsamples = 5\nvalue = 0.122"] ;
985 -> 986 ;
987 [label="mse = 0.0\nsamples = 4\nvalue = 0.121"] ;
986 -> 987 ;
988 [label="mse = -0.0\nsamples = 1\nvalue = 0.122"] ;
986 -> 988 ;
989 [label="X[4] <= 26.5\nmse = 0.0\nsamples = 20\nvalue = 0.12"] ;
985 -> 989 ;
990 [label="mse = 0.0\nsamples = 10\nvalue = 0.119"] ;
989 -> 990 ;
991 [label="mse = 0.0\nsamples = 10\nvalue = 0.121"] ;
989 -> 991 ;
992 [label="X[0] <= 10.5\nmse = 0.0\nsamples = 33\nvalue = 0.118"] ;
984 -> 992 ;
993 [label="X[4] <= 28.5\nmse = 0.0\nsamples = 12\nvalue = 0.117"] ;
992 -> 993 ;
994 [label="mse = 0.0\nsamples = 11\nvalue = 0.118"] ;
993 -> 994 ;
995 [label="mse = 0.0\nsamples = 1\nvalue = 0.099"] ;
993 -> 995 ;
996 [label="X[4] <= 25.5\nmse = 0.0\nsamples = 21\nvalue = 0.119"] ;
992 -> 996 ;
997 [label="mse = 0.0\nsamples = 8\nvalue = 0.12"] ;
996 -> 997 ;
998 [label="mse = 0.0\nsamples = 13\nvalue = 0.119"] ;
996 -> 998 ;
999 [label="X[4] <= 26.5\nmse = 0.0\nsamples = 224\nvalue = 0.117"] ;
973 -> 999 ;
1000 [label="X[0] <= 3.5\nmse = 0.0\nsamples = 114\nvalue = 0.118"] ;
999 -> 1000 ;
1001 [label="X[4] <= 24.5\nmse = 0.0\nsamples = 21\nvalue = 0.116"] ;
1000 -> 1001 ;
1002 [label="X[1] <= 4.5\nmse = 0.0\nsamples = 6\nvalue = 0.109"] ;
1001 -> 1002 ;
1003 [label="mse = 0.0\nsamples = 5\nvalue = 0.113"] ;
1002 -> 1003 ;
1004 [label="mse = -0.0\nsamples = 1\nvalue = 0.079"] ;
1002 -> 1004 ;
1005 [label="X[0] <= 1.5\nmse = 0.0\nsamples = 15\nvalue = 0.118"] ;
1001 -> 1005 ;
1006 [label="mse = 0.0\nsamples = 7\nvalue = 0.116"] ;
1005 -> 1006 ;
1007 [label="mse = 0.0\nsamples = 8\nvalue = 0.12"] ;
1005 -> 1007 ;
1008 [label="X[0] <= 11.5\nmse = 0.0\nsamples = 93\nvalue = 0.118"] ;
1000 -> 1008 ;
1009 [label="X[4] <= 24.5\nmse = 0.0\nsamples = 61\nvalue = 0.119"] ;
1008 -> 1009 ;
1010 [label="mse = 0.0\nsamples = 24\nvalue = 0.117"] ;
1009 -> 1010 ;
1011 [label="mse = 0.0\nsamples = 37\nvalue = 0.12"] ;
1009 -> 1011 ;
1012 [label="X[4] <= 25.5\nmse = 0.0\nsamples = 32\nvalue = 0.117"] ;
1008 -> 1012 ;
1013 [label="mse = 0.0\nsamples = 20\nvalue = 0.119"] ;
1012 -> 1013 ;
1014 [label="mse = 0.0\nsamples = 12\nvalue = 0.114"] ;
1012 -> 1014 ;
1015 [label="X[4] <= 27.5\nmse = 0.0\nsamples = 110\nvalue = 0.116"] ;
999 -> 1015 ;
1016 [label="X[0] <= 5.5\nmse = 0.0\nsamples = 40\nvalue = 0.114"] ;
1015 -> 1016 ;
1017 [label="X[0] <= 3.5\nmse = 0.0\nsamples = 13\nvalue = 0.108"] ;
1016 -> 1017 ;
1018 [label="mse = 0.0\nsamples = 7\nvalue = 0.12"] ;
1017 -> 1018 ;
1019 [label="mse = 0.0\nsamples = 6\nvalue = 0.099"] ;
1017 -> 1019 ;
1020 [label="X[1] <= 2.5\nmse = 0.0\nsamples = 27\nvalue = 0.117"] ;
1016 -> 1020 ;
1021 [label="mse = 0.0\nsamples = 5\nvalue = 0.108"] ;
1020 -> 1021 ;
1022 [label="mse = 0.0\nsamples = 22\nvalue = 0.119"] ;
1020 -> 1022 ;
1023 [label="X[0] <= 9.5\nmse = 0.0\nsamples = 70\nvalue = 0.117"] ;
1015 -> 1023 ;
1024 [label="X[1] <= 4.5\nmse = 0.0\nsamples = 43\nvalue = 0.119"] ;
1023 -> 1024 ;
1025 [label="mse = 0.0\nsamples = 33\nvalue = 0.119"] ;
1024 -> 1025 ;
1026 [label="mse = 0.0\nsamples = 10\nvalue = 0.116"] ;
1024 -> 1026 ;
1027 [label="X[1] <= 2.5\nmse = 0.0\nsamples = 27\nvalue = 0.115"] ;
1023 -> 1027 ;
1028 [label="mse = 0.0\nsamples = 7\nvalue = 0.11"] ;
1027 -> 1028 ;
1029 [label="mse = 0.0\nsamples = 20\nvalue = 0.117"] ;
1027 -> 1029 ;
1030 [label="X[0] <= 7.5\nmse = 0.0\nsamples = 259\nvalue = 0.094"] ;
972 -> 1030 ;
1031 [label="X[4] <= 26.5\nmse = 0.0\nsamples = 114\nvalue = 0.093"] ;
1030 -> 1031 ;
1032 [label="X[4] <= 25.5\nmse = 0.0\nsamples = 54\nvalue = 0.091"] ;
1031 -> 1032 ;
1033 [label="X[1] <= 2.5\nmse = 0.0\nsamples = 35\nvalue = 0.093"] ;
1032 -> 1033 ;
1034 [label="X[0] <= 4.5\nmse = 0.0\nsamples = 14\nvalue = 0.088"] ;
1033 -> 1034 ;
1035 [label="mse = 0.0\nsamples = 8\nvalue = 0.091"] ;
1034 -> 1035 ;
1036 [label="mse = 0.0\nsamples = 6\nvalue = 0.084"] ;
1034 -> 1036 ;
1037 [label="X[0] <= 6.5\nmse = 0.0\nsamples = 21\nvalue = 0.097"] ;
1033 -> 1037 ;
1038 [label="mse = 0.0\nsamples = 19\nvalue = 0.098"] ;
1037 -> 1038 ;
1039 [label="mse = 0.0\nsamples = 2\nvalue = 0.086"] ;
1037 -> 1039 ;
1040 [label="X[1] <= 2.5\nmse = 0.0\nsamples = 19\nvalue = 0.087"] ;
1032 -> 1040 ;
1041 [label="X[0] <= 6.5\nmse = 0.0\nsamples = 8\nvalue = 0.099"] ;
1040 -> 1041 ;
1042 [label="mse = 0.0\nsamples = 7\nvalue = 0.101"] ;
1041 -> 1042 ;
1043 [label="mse = 0.0\nsamples = 1\nvalue = 0.079"] ;
1041 -> 1043 ;
1044 [label="X[0] <= 1.5\nmse = 0.0\nsamples = 11\nvalue = 0.082"] ;
1040 -> 1044 ;
1045 [label="mse = 0.0\nsamples = 1\nvalue = 0.061"] ;
1044 -> 1045 ;
1046 [label="mse = 0.0\nsamples = 10\nvalue = 0.084"] ;
1044 -> 1046 ;
1047 [label="X[1] <= 4.5\nmse = 0.0\nsamples = 60\nvalue = 0.095"] ;
1031 -> 1047 ;
1048 [label="X[0] <= 1.5\nmse = 0.0\nsamples = 44\nvalue = 0.096"] ;
1047 -> 1048 ;
1049 [label="X[4] <= 28.5\nmse = 0.0\nsamples = 4\nvalue = 0.102"] ;
1048 -> 1049 ;
1050 [label="mse = 0.0\nsamples = 3\nvalue = 0.102"] ;
1049 -> 1050 ;
1051 [label="mse = 0.0\nsamples = 1\nvalue = 0.1"] ;
1049 -> 1051 ;
1052 [label="X[4] <= 27.5\nmse = 0.0\nsamples = 40\nvalue = 0.095"] ;
1048 -> 1052 ;
1053 [label="mse = 0.0\nsamples = 19\nvalue = 0.097"] ;
1052 -> 1053 ;
1054 [label="mse = 0.0\nsamples = 21\nvalue = 0.094"] ;
1052 -> 1054 ;
1055 [label="X[0] <= 6.5\nmse = 0.0\nsamples = 16\nvalue = 0.091"] ;
1047 -> 1055 ;
1056 [label="X[4] <= 27.5\nmse = 0.0\nsamples = 15\nvalue = 0.092"] ;
1055 -> 1056 ;
1057 [label="mse = 0.0\nsamples = 5\nvalue = 0.095"] ;
1056 -> 1057 ;
1058 [label="mse = 0.0\nsamples = 10\nvalue = 0.091"] ;
1056 -> 1058 ;
1059 [label="mse = -0.0\nsamples = 1\nvalue = 0.078"] ;
1055 -> 1059 ;
1060 [label="X[1] <= 2.5\nmse = 0.0\nsamples = 145\nvalue = 0.096"] ;
1030 -> 1060 ;
1061 [label="X[0] <= 12.5\nmse = 0.0\nsamples = 60\nvalue = 0.094"] ;
1060 -> 1061 ;
1062 [label="X[0] <= 11.5\nmse = 0.0\nsamples = 40\nvalue = 0.095"] ;
1061 -> 1062 ;
1063 [label="X[0] <= 9.5\nmse = 0.0\nsamples = 34\nvalue = 0.094"] ;
1062 -> 1063 ;
1064 [label="mse = 0.0\nsamples = 17\nvalue = 0.096"] ;
1063 -> 1064 ;
1065 [label="mse = 0.0\nsamples = 17\nvalue = 0.093"] ;
1063 -> 1065 ;
1066 [label="X[4] <= 28.0\nmse = 0.0\nsamples = 6\nvalue = 0.101"] ;
1062 -> 1066 ;
1067 [label="mse = 0.0\nsamples = 4\nvalue = 0.101"] ;
1066 -> 1067 ;
1068 [label="mse = 0.0\nsamples = 2\nvalue = 0.099"] ;
1066 -> 1068 ;
1069 [label="X[4] <= 24.5\nmse = 0.0\nsamples = 20\nvalue = 0.09"] ;
1061 -> 1069 ;
1070 [label="X[1] <= 1.5\nmse = 0.0\nsamples = 5\nvalue = 0.084"] ;
1069 -> 1070 ;
1071 [label="mse = 0.0\nsamples = 3\nvalue = 0.073"] ;
1070 -> 1071 ;
1072 [label="mse = 0.0\nsamples = 2\nvalue = 0.102"] ;
1070 -> 1072 ;
1073 [label="X[4] <= 28.5\nmse = 0.0\nsamples = 15\nvalue = 0.092"] ;
1069 -> 1073 ;
1074 [label="mse = 0.0\nsamples = 11\nvalue = 0.094"] ;
1073 -> 1074 ;
1075 [label="mse = 0.0\nsamples = 4\nvalue = 0.086"] ;
1073 -> 1075 ;
1076 [label="X[0] <= 14.5\nmse = 0.0\nsamples = 85\nvalue = 0.097"] ;
1060 -> 1076 ;
1077 [label="X[4] <= 26.5\nmse = 0.0\nsamples = 72\nvalue = 0.098"] ;
1076 -> 1077 ;
1078 [label="X[0] <= 13.5\nmse = 0.0\nsamples = 34\nvalue = 0.096"] ;
1077 -> 1078 ;
1079 [label="mse = 0.0\nsamples = 28\nvalue = 0.095"] ;
1078 -> 1079 ;
1080 [label="mse = 0.0\nsamples = 6\nvalue = 0.1"] ;
1078 -> 1080 ;
1081 [label="X[4] <= 27.5\nmse = 0.0\nsamples = 38\nvalue = 0.1"] ;
1077 -> 1081 ;
1082 [label="mse = 0.0\nsamples = 11\nvalue = 0.098"] ;
1081 -> 1082 ;
1083 [label="mse = 0.0\nsamples = 27\nvalue = 0.1"] ;
1081 -> 1083 ;
1084 [label="X[1] <= 3.5\nmse = 0.0\nsamples = 13\nvalue = 0.093"] ;
1076 -> 1084 ;
1085 [label="X[4] <= 26.0\nmse = 0.0\nsamples = 3\nvalue = 0.08"] ;
1084 -> 1085 ;
1086 [label="mse = 0.0\nsamples = 1\nvalue = 0.083"] ;
1085 -> 1086 ;
1087 [label="mse = 0.0\nsamples = 2\nvalue = 0.079"] ;
1085 -> 1087 ;
1088 [label="X[4] <= 26.5\nmse = 0.0\nsamples = 10\nvalue = 0.096"] ;
1084 -> 1088 ;
1089 [label="mse = 0.0\nsamples = 5\nvalue = 0.099"] ;
1088 -> 1089 ;
1090 [label="mse = 0.0\nsamples = 5\nvalue = 0.093"] ;
1088 -> 1090 ;
1091 [label="X[1] <= 2.5\nmse = 0.0\nsamples = 566\nvalue = 0.072"] ;
865 -> 1091 ;
1092 [label="X[0] <= 5.5\nmse = 0.0\nsamples = 230\nvalue = 0.071"] ;
1091 -> 1092 ;
1093 [label="X[0] <= 3.5\nmse = 0.0\nsamples = 74\nvalue = 0.068"] ;
1092 -> 1093 ;
1094 [label="X[1] <= 1.5\nmse = 0.0\nsamples = 49\nvalue = 0.072"] ;
1093 -> 1094 ;
1095 [label="X[4] <= 26.5\nmse = 0.0\nsamples = 23\nvalue = 0.068"] ;
1094 -> 1095 ;
1096 [label="X[4] <= 24.5\nmse = 0.0\nsamples = 12\nvalue = 0.072"] ;
1095 -> 1096 ;
1097 [label="X[2] <= 19.0\nmse = 0.0\nsamples = 2\nvalue = 0.079"] ;
1096 -> 1097 ;
1098 [label="mse = 0.0\nsamples = 1\nvalue = 0.079"] ;
1097 -> 1098 ;
1099 [label="mse = 0.0\nsamples = 1\nvalue = 0.08"] ;
1097 -> 1099 ;
1100 [label="X[2] <= 19.0\nmse = 0.0\nsamples = 10\nvalue = 0.071"] ;
1096 -> 1100 ;
1101 [label="mse = 0.0\nsamples = 5\nvalue = 0.073"] ;
1100 -> 1101 ;
1102 [label="mse = 0.0\nsamples = 5\nvalue = 0.067"] ;
1100 -> 1102 ;
1103 [label="X[4] <= 27.5\nmse = 0.0\nsamples = 11\nvalue = 0.065"] ;
1095 -> 1103 ;
1104 [label="X[0] <= 2.5\nmse = 0.0\nsamples = 5\nvalue = 0.058"] ;
1103 -> 1104 ;
1105 [label="mse = 0.0\nsamples = 3\nvalue = 0.051"] ;
1104 -> 1105 ;
1106 [label="mse = 0.0\nsamples = 2\nvalue = 0.08"] ;
1104 -> 1106 ;
1107 [label="X[0] <= 2.5\nmse = 0.0\nsamples = 6\nvalue = 0.074"] ;
1103 -> 1107 ;
1108 [label="mse = 0.0\nsamples = 3\nvalue = 0.08"] ;
1107 -> 1108 ;
1109 [label="mse = 0.0\nsamples = 3\nvalue = 0.069"] ;
1107 -> 1109 ;
1110 [label="X[2] <= 19.0\nmse = 0.0\nsamples = 26\nvalue = 0.075"] ;
1094 -> 1110 ;
1111 [label="X[0] <= 2.5\nmse = 0.0\nsamples = 14\nvalue = 0.071"] ;
1110 -> 1111 ;
1112 [label="X[4] <= 26.5\nmse = 0.0\nsamples = 9\nvalue = 0.077"] ;
1111 -> 1112 ;
1113 [label="mse = 0.0\nsamples = 5\nvalue = 0.082"] ;
1112 -> 1113 ;
1114 [label="mse = 0.0\nsamples = 4\nvalue = 0.066"] ;
1112 -> 1114 ;
1115 [label="X[4] <= 24.5\nmse = 0.0\nsamples = 5\nvalue = 0.06"] ;
1111 -> 1115 ;
1116 [label="mse = 0.0\nsamples = 1\nvalue = 0.02"] ;
1115 -> 1116 ;
1117 [label="mse = 0.0\nsamples = 4\nvalue = 0.067"] ;
1115 -> 1117 ;
1118 [label="X[4] <= 25.5\nmse = 0.0\nsamples = 12\nvalue = 0.08"] ;
1110 -> 1118 ;
1119 [label="X[0] <= 2.5\nmse = 0.0\nsamples = 3\nvalue = 0.081"] ;
1118 -> 1119 ;
1120 [label="mse = 0.0\nsamples = 2\nvalue = 0.082"] ;
1119 -> 1120 ;
1121 [label="mse = -0.0\nsamples = 1\nvalue = 0.08"] ;
1119 -> 1121 ;
1122 [label="X[0] <= 1.5\nmse = 0.0\nsamples = 9\nvalue = 0.079"] ;
1118 -> 1122 ;
1123 [label="mse = 0.0\nsamples = 1\nvalue = 0.081"] ;
1122 -> 1123 ;
1124 [label="mse = 0.0\nsamples = 8\nvalue = 0.079"] ;
1122 -> 1124 ;
1125 [label="X[4] <= 25.5\nmse = 0.0\nsamples = 25\nvalue = 0.061"] ;
1093 -> 1125 ;
1126 [label="X[2] <= 19.0\nmse = 0.0\nsamples = 8\nvalue = 0.071"] ;
1125 -> 1126 ;
1127 [label="X[1] <= 1.5\nmse = 0.0\nsamples = 2\nvalue = 0.078"] ;
1126 -> 1127 ;
1128 [label="mse = 0.0\nsamples = 1\nvalue = 0.079"] ;
1127 -> 1128 ;
1129 [label="mse = -0.0\nsamples = 1\nvalue = 0.077"] ;
1127 -> 1129 ;
1130 [label="X[1] <= 1.5\nmse = 0.0\nsamples = 6\nvalue = 0.068"] ;
1126 -> 1130 ;
1131 [label="X[4] <= 24.5\nmse = 0.0\nsamples = 3\nvalue = 0.066"] ;
1130 -> 1131 ;
1132 [label="mse = 0.0\nsamples = 2\nvalue = 0.061"] ;
1131 -> 1132 ;
1133 [label="mse = 0.0\nsamples = 1\nvalue = 0.079"] ;
1131 -> 1133 ;
1134 [label="X[4] <= 24.5\nmse = 0.0\nsamples = 3\nvalue = 0.072"] ;
1130 -> 1134 ;
1135 [label="mse = 0.0\nsamples = 2\nvalue = 0.078"] ;
1134 -> 1135 ;
1136 [label="mse = 0.0\nsamples = 1\nvalue = 0.06"] ;
1134 -> 1136 ;
1137 [label="X[1] <= 1.5\nmse = 0.0\nsamples = 17\nvalue = 0.059"] ;
1125 -> 1137 ;
1138 [label="X[4] <= 26.5\nmse = 0.0\nsamples = 8\nvalue = 0.066"] ;
1137 -> 1138 ;
1139 [label="X[2] <= 19.0\nmse = 0.0\nsamples = 3\nvalue = 0.057"] ;
1138 -> 1139 ;
1140 [label="mse = 0.0\nsamples = 1\nvalue = 0.061"] ;
1139 -> 1140 ;
1141 [label="mse = 0.0\nsamples = 2\nvalue = 0.055"] ;
1139 -> 1141 ;
1142 [label="X[2] <= 19.0\nmse = 0.0\nsamples = 5\nvalue = 0.075"] ;
1138 -> 1142 ;
1143 [label="mse = 0.0\nsamples = 3\nvalue = 0.067"] ;
1142 -> 1143 ;
1144 [label="mse = 0.0\nsamples = 2\nvalue = 0.083"] ;
1142 -> 1144 ;
1145 [label="X[2] <= 19.0\nmse = 0.0\nsamples = 9\nvalue = 0.054"] ;
1137 -> 1145 ;
1146 [label="X[4] <= 26.5\nmse = 0.0\nsamples = 4\nvalue = 0.063"] ;
1145 -> 1146 ;
1147 [label="mse = 0.0\nsamples = 2\nvalue = 0.06"] ;
1146 -> 1147 ;
1148 [label="mse = 0.0\nsamples = 2\nvalue = 0.071"] ;
1146 -> 1148 ;
1149 [label="X[4] <= 27.5\nmse = 0.0\nsamples = 5\nvalue = 0.049"] ;
1145 -> 1149 ;
1150 [label="mse = 0.0\nsamples = 2\nvalue = 0.04"] ;
1149 -> 1150 ;
1151 [label="mse = 0.0\nsamples = 3\nvalue = 0.06"] ;
1149 -> 1151 ;
1152 [label="X[4] <= 27.5\nmse = 0.0\nsamples = 156\nvalue = 0.072"] ;
1092 -> 1152 ;
1153 [label="X[0] <= 6.5\nmse = 0.0\nsamples = 101\nvalue = 0.073"] ;
1152 -> 1153 ;
1154 [label="X[1] <= 1.5\nmse = 0.0\nsamples = 9\nvalue = 0.079"] ;
1153 -> 1154 ;
1155 [label="X[4] <= 25.5\nmse = 0.0\nsamples = 4\nvalue = 0.078"] ;
1154 -> 1155 ;
1156 [label="X[2] <= 19.0\nmse = 0.0\nsamples = 2\nvalue = 0.077"] ;
1155 -> 1156 ;
1157 [label="mse = 0.0\nsamples = 1\nvalue = 0.076"] ;
1156 -> 1157 ;
1158 [label="mse = 0.0\nsamples = 1\nvalue = 0.078"] ;
1156 -> 1158 ;
1159 [label="X[2] <= 19.0\nmse = 0.0\nsamples = 2\nvalue = 0.078"] ;
1155 -> 1159 ;
1160 [label="mse = 0.0\nsamples = 1\nvalue = 0.08"] ;
1159 -> 1160 ;
1161 [label="mse = 0.0\nsamples = 1\nvalue = 0.077"] ;
1159 -> 1161 ;
1162 [label="X[2] <= 19.0\nmse = 0.0\nsamples = 5\nvalue = 0.079"] ;
1154 -> 1162 ;
1163 [label="mse = 0.0\nsamples = 1\nvalue = 0.081"] ;
1162 -> 1163 ;
1164 [label="X[4] <= 25.5\nmse = 0.0\nsamples = 4\nvalue = 0.079"] ;
1162 -> 1164 ;
1165 [label="mse = 0.0\nsamples = 2\nvalue = 0.08"] ;
1164 -> 1165 ;
1166 [label="mse = 0.0\nsamples = 2\nvalue = 0.077"] ;
1164 -> 1166 ;
1167 [label="X[0] <= 11.5\nmse = 0.0\nsamples = 92\nvalue = 0.072"] ;
1153 -> 1167 ;
1168 [label="X[4] <= 25.5\nmse = 0.0\nsamples = 53\nvalue = 0.071"] ;
1167 -> 1168 ;
1169 [label="X[0] <= 10.5\nmse = 0.0\nsamples = 25\nvalue = 0.068"] ;
1168 -> 1169 ;
1170 [label="mse = 0.0\nsamples = 19\nvalue = 0.065"] ;
1169 -> 1170 ;
1171 [label="mse = 0.0\nsamples = 6\nvalue = 0.08"] ;
1169 -> 1171 ;
1172 [label="X[0] <= 10.5\nmse = 0.0\nsamples = 28\nvalue = 0.073"] ;
1168 -> 1172 ;
1173 [label="mse = 0.0\nsamples = 22\nvalue = 0.075"] ;
1172 -> 1173 ;
1174 [label="mse = 0.0\nsamples = 6\nvalue = 0.066"] ;
1172 -> 1174 ;
1175 [label="X[4] <= 24.5\nmse = 0.0\nsamples = 39\nvalue = 0.075"] ;
1167 -> 1175 ;
1176 [label="X[0] <= 14.0\nmse = 0.0\nsamples = 10\nvalue = 0.078"] ;
1175 -> 1176 ;
1177 [label="mse = 0.0\nsamples = 6\nvalue = 0.08"] ;
1176 -> 1177 ;
1178 [label="mse = 0.0\nsamples = 4\nvalue = 0.076"] ;
1176 -> 1178 ;
1179 [label="X[1] <= 1.5\nmse = 0.0\nsamples = 29\nvalue = 0.074"] ;
1175 -> 1179 ;
1180 [label="mse = 0.0\nsamples = 16\nvalue = 0.076"] ;
1179 -> 1180 ;
1181 [label="mse = 0.0\nsamples = 13\nvalue = 0.071"] ;
1179 -> 1181 ;
1182 [label="X[4] <= 28.5\nmse = 0.0\nsamples = 55\nvalue = 0.069"] ;
1152 -> 1182 ;
1183 [label="X[0] <= 7.5\nmse = 0.0\nsamples = 28\nvalue = 0.065"] ;
1182 -> 1183 ;
1184 [label="X[0] <= 6.5\nmse = 0.0\nsamples = 6\nvalue = 0.077"] ;
1183 -> 1184 ;
1185 [label="X[1] <= 1.5\nmse = 0.0\nsamples = 3\nvalue = 0.074"] ;
1184 -> 1185 ;
1186 [label="mse = 0.0\nsamples = 2\nvalue = 0.077"] ;
1185 -> 1186 ;
1187 [label="mse = 0.0\nsamples = 1\nvalue = 0.061"] ;
1185 -> 1187 ;
1188 [label="X[1] <= 1.5\nmse = 0.0\nsamples = 3\nvalue = 0.082"] ;
1184 -> 1188 ;
1189 [label="mse = 0.0\nsamples = 2\nvalue = 0.081"] ;
1188 -> 1189 ;
1190 [label="mse = 0.0\nsamples = 1\nvalue = 0.084"] ;
1188 -> 1190 ;
1191 [label="X[0] <= 9.5\nmse = 0.0\nsamples = 22\nvalue = 0.062"] ;
1183 -> 1191 ;
1192 [label="X[2] <= 19.0\nmse = 0.0\nsamples = 5\nvalue = 0.054"] ;
1191 -> 1192 ;
1193 [label="mse = 0.0\nsamples = 3\nvalue = 0.074"] ;
1192 -> 1193 ;
1194 [label="mse = 0.0\nsamples = 2\nvalue = 0.037"] ;
1192 -> 1194 ;
1195 [label="X[0] <= 12.5\nmse = 0.0\nsamples = 17\nvalue = 0.065"] ;
1191 -> 1195 ;
1196 [label="mse = 0.0\nsamples = 9\nvalue = 0.067"] ;
1195 -> 1196 ;
1197 [label="mse = 0.0\nsamples = 8\nvalue = 0.063"] ;
1195 -> 1197 ;
1198 [label="X[0] <= 7.5\nmse = 0.0\nsamples = 27\nvalue = 0.073"] ;
1182 -> 1198 ;
1199 [label="X[1] <= 1.5\nmse = 0.0\nsamples = 6\nvalue = 0.068"] ;
1198 -> 1199 ;
1200 [label="X[0] <= 6.5\nmse = 0.0\nsamples = 3\nvalue = 0.073"] ;
1199 -> 1200 ;
1201 [label="mse = 0.0\nsamples = 2\nvalue = 0.078"] ;
1200 -> 1201 ;
1202 [label="mse = -0.0\nsamples = 1\nvalue = 0.064"] ;
1200 -> 1202 ;
1203 [label="X[2] <= 19.0\nmse = 0.0\nsamples = 3\nvalue = 0.065"] ;
1199 -> 1203 ;
1204 [label="mse = 0.0\nsamples = 2\nvalue = 0.069"] ;
1203 -> 1204 ;
1205 [label="mse = -0.0\nsamples = 1\nvalue = 0.058"] ;
1203 -> 1205 ;
1206 [label="X[0] <= 8.5\nmse = 0.0\nsamples = 21\nvalue = 0.075"] ;
1198 -> 1206 ;
1207 [label="X[2] <= 19.0\nmse = 0.0\nsamples = 2\nvalue = 0.081"] ;
1206 -> 1207 ;
1208 [label="mse = 0.0\nsamples = 1\nvalue = 0.079"] ;
1207 -> 1208 ;
1209 [label="mse = -0.0\nsamples = 1\nvalue = 0.082"] ;
1207 -> 1209 ;
1210 [label="X[0] <= 14.5\nmse = 0.0\nsamples = 19\nvalue = 0.074"] ;
1206 -> 1210 ;
1211 [label="mse = 0.0\nsamples = 15\nvalue = 0.073"] ;
1210 -> 1211 ;
1212 [label="mse = 0.0\nsamples = 4\nvalue = 0.079"] ;
1210 -> 1212 ;
1213 [label="X[4] <= 24.5\nmse = 0.0\nsamples = 336\nvalue = 0.073"] ;
1091 -> 1213 ;
1214 [label="X[0] <= 9.5\nmse = 0.0\nsamples = 58\nvalue = 0.069"] ;
1213 -> 1214 ;
1215 [label="X[1] <= 4.5\nmse = 0.0\nsamples = 35\nvalue = 0.075"] ;
1214 -> 1215 ;
1216 [label="X[0] <= 7.5\nmse = 0.0\nsamples = 23\nvalue = 0.077"] ;
1215 -> 1216 ;
1217 [label="X[0] <= 6.5\nmse = 0.0\nsamples = 18\nvalue = 0.075"] ;
1216 -> 1217 ;
1218 [label="X[2] <= 19.0\nmse = 0.0\nsamples = 16\nvalue = 0.077"] ;
1217 -> 1218 ;
1219 [label="mse = 0.0\nsamples = 8\nvalue = 0.079"] ;
1218 -> 1219 ;
1220 [label="mse = 0.0\nsamples = 8\nvalue = 0.075"] ;
1218 -> 1220 ;
1221 [label="mse = 0.0\nsamples = 2\nvalue = 0.059"] ;
1217 -> 1221 ;
1222 [label="X[1] <= 3.5\nmse = 0.0\nsamples = 5\nvalue = 0.081"] ;
1216 -> 1222 ;
1223 [label="X[2] <= 19.0\nmse = 0.0\nsamples = 3\nvalue = 0.08"] ;
1222 -> 1223 ;
1224 [label="mse = 0.0\nsamples = 1\nvalue = 0.079"] ;
1223 -> 1224 ;
1225 [label="mse = 0.0\nsamples = 2\nvalue = 0.081"] ;
1223 -> 1225 ;
1226 [label="X[0] <= 8.5\nmse = 0.0\nsamples = 2\nvalue = 0.083"] ;
1222 -> 1226 ;
1227 [label="mse = 0.0\nsamples = 1\nvalue = 0.081"] ;
1226 -> 1227 ;
1228 [label="mse = 0.0\nsamples = 1\nvalue = 0.084"] ;
1226 -> 1228 ;
1229 [label="X[0] <= 5.5\nmse = 0.0\nsamples = 12\nvalue = 0.071"] ;
1215 -> 1229 ;
1230 [label="X[0] <= 3.5\nmse = 0.0\nsamples = 7\nvalue = 0.075"] ;
1229 -> 1230 ;
1231 [label="X[2] <= 19.0\nmse = 0.0\nsamples = 3\nvalue = 0.066"] ;
1230 -> 1231 ;
1232 [label="mse = 0.0\nsamples = 1\nvalue = 0.081"] ;
1231 -> 1232 ;
1233 [label="mse = 0.0\nsamples = 2\nvalue = 0.061"] ;
1231 -> 1233 ;
1234 [label="X[0] <= 4.5\nmse = 0.0\nsamples = 4\nvalue = 0.08"] ;
1230 -> 1234 ;
1235 [label="mse = 0.0\nsamples = 2\nvalue = 0.079"] ;
1234 -> 1235 ;
1236 [label="mse = 0.0\nsamples = 2\nvalue = 0.081"] ;
1234 -> 1236 ;
1237 [label="X[0] <= 6.5\nmse = 0.0\nsamples = 5\nvalue = 0.066"] ;
1229 -> 1237 ;
1238 [label="mse = 0.0\nsamples = 1\nvalue = 0.06"] ;
1237 -> 1238 ;
1239 [label="X[0] <= 8.5\nmse = 0.0\nsamples = 4\nvalue = 0.068"] ;
1237 -> 1239 ;
1240 [label="mse = 0.0\nsamples = 3\nvalue = 0.07"] ;
1239 -> 1240 ;
1241 [label="mse = 0.0\nsamples = 1\nvalue = 0.061"] ;
1239 -> 1241 ;
1242 [label="X[1] <= 4.5\nmse = 0.0\nsamples = 23\nvalue = 0.062"] ;
1214 -> 1242 ;
1243 [label="X[0] <= 10.5\nmse = 0.0\nsamples = 16\nvalue = 0.068"] ;
1242 -> 1243 ;
1244 [label="X[2] <= 19.0\nmse = 0.0\nsamples = 2\nvalue = 0.048"] ;
1243 -> 1244 ;
1245 [label="mse = 0.0\nsamples = 1\nvalue = 0.061"] ;
1244 -> 1245 ;
1246 [label="mse = 0.0\nsamples = 1\nvalue = 0.04"] ;
1244 -> 1246 ;
1247 [label="X[0] <= 14.5\nmse = 0.0\nsamples = 14\nvalue = 0.071"] ;
1243 -> 1247 ;
1248 [label="X[2] <= 19.0\nmse = 0.0\nsamples = 11\nvalue = 0.067"] ;
1247 -> 1248 ;
1249 [label="mse = 0.0\nsamples = 5\nvalue = 0.06"] ;
1248 -> 1249 ;
1250 [label="mse = 0.0\nsamples = 6\nvalue = 0.075"] ;
1248 -> 1250 ;
1251 [label="X[1] <= 3.5\nmse = 0.0\nsamples = 3\nvalue = 0.081"] ;
1247 -> 1251 ;
1252 [label="mse = 0.0\nsamples = 2\nvalue = 0.08"] ;
1251 -> 1252 ;
1253 [label="mse = -0.0\nsamples = 1\nvalue = 0.082"] ;
1251 -> 1253 ;
1254 [label="X[2] <= 19.0\nmse = 0.0\nsamples = 7\nvalue = 0.051"] ;
1242 -> 1254 ;
1255 [label="X[0] <= 14.0\nmse = 0.0\nsamples = 2\nvalue = 0.026"] ;
1254 -> 1255 ;
1256 [label="mse = 0.0\nsamples = 1\nvalue = 0.019"] ;
1255 -> 1256 ;
1257 [label="mse = -0.0\nsamples = 1\nvalue = 0.039"] ;
1255 -> 1257 ;
1258 [label="X[0] <= 12.5\nmse = 0.0\nsamples = 5\nvalue = 0.066"] ;
1254 -> 1258 ;
1259 [label="X[0] <= 11.5\nmse = 0.0\nsamples = 3\nvalue = 0.062"] ;
1258 -> 1259 ;
1260 [label="mse = 0.0\nsamples = 2\nvalue = 0.068"] ;
1259 -> 1260 ;
1261 [label="mse = 0.0\nsamples = 1\nvalue = 0.056"] ;
1259 -> 1261 ;
1262 [label="X[0] <= 13.5\nmse = 0.0\nsamples = 2\nvalue = 0.071"] ;
1258 -> 1262 ;
1263 [label="mse = 0.0\nsamples = 1\nvalue = 0.081"] ;
1262 -> 1263 ;
1264 [label="mse = 0.0\nsamples = 1\nvalue = 0.061"] ;
1262 -> 1264 ;
1265 [label="X[1] <= 4.5\nmse = 0.0\nsamples = 278\nvalue = 0.074"] ;
1213 -> 1265 ;
1266 [label="X[0] <= 13.5\nmse = 0.0\nsamples = 186\nvalue = 0.072"] ;
1265 -> 1266 ;
1267 [label="X[0] <= 12.5\nmse = 0.0\nsamples = 165\nvalue = 0.073"] ;
1266 -> 1267 ;
1268 [label="X[0] <= 2.5\nmse = 0.0\nsamples = 151\nvalue = 0.072"] ;
1267 -> 1268 ;
1269 [label="X[1] <= 3.5\nmse = 0.0\nsamples = 25\nvalue = 0.069"] ;
1268 -> 1269 ;
1270 [label="mse = 0.0\nsamples = 15\nvalue = 0.067"] ;
1269 -> 1270 ;
1271 [label="mse = 0.0\nsamples = 10\nvalue = 0.074"] ;
1269 -> 1271 ;
1272 [label="X[1] <= 3.5\nmse = 0.0\nsamples = 126\nvalue = 0.073"] ;
1268 -> 1272 ;
1273 [label="mse = 0.0\nsamples = 65\nvalue = 0.074"] ;
1272 -> 1273 ;
1274 [label="mse = 0.0\nsamples = 61\nvalue = 0.071"] ;
1272 -> 1274 ;
1275 [label="X[4] <= 26.5\nmse = 0.0\nsamples = 14\nvalue = 0.078"] ;
1267 -> 1275 ;
1276 [label="X[1] <= 3.5\nmse = 0.0\nsamples = 6\nvalue = 0.082"] ;
1275 -> 1276 ;
1277 [label="mse = 0.0\nsamples = 3\nvalue = 0.083"] ;
1276 -> 1277 ;
1278 [label="mse = 0.0\nsamples = 3\nvalue = 0.081"] ;
1276 -> 1278 ;
1279 [label="X[1] <= 3.5\nmse = 0.0\nsamples = 8\nvalue = 0.075"] ;
1275 -> 1279 ;
1280 [label="mse = 0.0\nsamples = 3\nvalue = 0.065"] ;
1279 -> 1280 ;
1281 [label="mse = 0.0\nsamples = 5\nvalue = 0.08"] ;
1279 -> 1281 ;
1282 [label="X[4] <= 27.5\nmse = 0.0\nsamples = 21\nvalue = 0.068"] ;
1266 -> 1282 ;
1283 [label="X[1] <= 3.5\nmse = 0.0\nsamples = 13\nvalue = 0.065"] ;
1282 -> 1283 ;
1284 [label="X[2] <= 19.0\nmse = 0.0\nsamples = 5\nvalue = 0.071"] ;
1283 -> 1284 ;
1285 [label="mse = 0.0\nsamples = 2\nvalue = 0.066"] ;
1284 -> 1285 ;
1286 [label="mse = 0.0\nsamples = 3\nvalue = 0.074"] ;
1284 -> 1286 ;
1287 [label="X[4] <= 25.5\nmse = 0.0\nsamples = 8\nvalue = 0.06"] ;
1283 -> 1287 ;
1288 [label="mse = 0.0\nsamples = 2\nvalue = 0.07"] ;
1287 -> 1288 ;
1289 [label="mse = 0.0\nsamples = 6\nvalue = 0.058"] ;
1287 -> 1289 ;
1290 [label="X[2] <= 19.0\nmse = 0.0\nsamples = 8\nvalue = 0.071"] ;
1282 -> 1290 ;
1291 [label="X[1] <= 3.5\nmse = 0.0\nsamples = 6\nvalue = 0.074"] ;
1290 -> 1291 ;
1292 [label="mse = 0.0\nsamples = 3\nvalue = 0.065"] ;
1291 -> 1292 ;
1293 [label="mse = 0.0\nsamples = 3\nvalue = 0.077"] ;
1291 -> 1293 ;
1294 [label="X[4] <= 28.5\nmse = 0.0\nsamples = 2\nvalue = 0.061"] ;
1290 -> 1294 ;
1295 [label="mse = 0.0\nsamples = 1\nvalue = 0.061"] ;
1294 -> 1295 ;
1296 [label="mse = -0.0\nsamples = 1\nvalue = 0.062"] ;
1294 -> 1296 ;
1297 [label="X[0] <= 11.5\nmse = 0.0\nsamples = 92\nvalue = 0.077"] ;
1265 -> 1297 ;
1298 [label="X[2] <= 19.0\nmse = 0.0\nsamples = 68\nvalue = 0.077"] ;
1297 -> 1298 ;
1299 [label="X[0] <= 10.5\nmse = 0.0\nsamples = 33\nvalue = 0.079"] ;
1298 -> 1299 ;
1300 [label="X[0] <= 7.5\nmse = 0.0\nsamples = 28\nvalue = 0.08"] ;
1299 -> 1300 ;
1301 [label="mse = 0.0\nsamples = 20\nvalue = 0.079"] ;
1300 -> 1301 ;
1302 [label="mse = 0.0\nsamples = 8\nvalue = 0.082"] ;
1300 -> 1302 ;
1303 [label="X[4] <= 28.5\nmse = 0.0\nsamples = 5\nvalue = 0.077"] ;
1299 -> 1303 ;
1304 [label="mse = 0.0\nsamples = 4\nvalue = 0.079"] ;
1303 -> 1304 ;
1305 [label="mse = -0.0\nsamples = 1\nvalue = 0.062"] ;
1303 -> 1305 ;
1306 [label="X[0] <= 2.5\nmse = 0.0\nsamples = 35\nvalue = 0.075"] ;
1298 -> 1306 ;
1307 [label="X[0] <= 1.5\nmse = 0.0\nsamples = 7\nvalue = 0.072"] ;
1306 -> 1307 ;
1308 [label="mse = 0.0\nsamples = 4\nvalue = 0.077"] ;
1307 -> 1308 ;
1309 [label="mse = 0.0\nsamples = 3\nvalue = 0.066"] ;
1307 -> 1309 ;
1310 [label="X[0] <= 9.5\nmse = 0.0\nsamples = 28\nvalue = 0.076"] ;
1306 -> 1310 ;
1311 [label="mse = 0.0\nsamples = 21\nvalue = 0.076"] ;
1310 -> 1311 ;
1312 [label="mse = 0.0\nsamples = 7\nvalue = 0.079"] ;
1310 -> 1312 ;
1313 [label="X[0] <= 12.5\nmse = 0.0\nsamples = 24\nvalue = 0.075"] ;
1297 -> 1313 ;
1314 [label="X[2] <= 19.0\nmse = 0.0\nsamples = 4\nvalue = 0.063"] ;
1313 -> 1314 ;
1315 [label="X[4] <= 27.5\nmse = 0.0\nsamples = 3\nvalue = 0.055"] ;
1314 -> 1315 ;
1316 [label="mse = 0.0\nsamples = 2\nvalue = 0.051"] ;
1315 -> 1316 ;
1317 [label="mse = 0.0\nsamples = 1\nvalue = 0.059"] ;
1315 -> 1317 ;
1318 [label="mse = 0.0\nsamples = 1\nvalue = 0.08"] ;
1314 -> 1318 ;
1319 [label="X[4] <= 25.5\nmse = 0.0\nsamples = 20\nvalue = 0.077"] ;
1313 -> 1319 ;
1320 [label="X[2] <= 19.0\nmse = 0.0\nsamples = 4\nvalue = 0.07"] ;
1319 -> 1320 ;
1321 [label="mse = 0.0\nsamples = 1\nvalue = 0.082"] ;
1320 -> 1321 ;
1322 [label="mse = 0.0\nsamples = 3\nvalue = 0.067"] ;
1320 -> 1322 ;
1323 [label="X[2] <= 19.0\nmse = 0.0\nsamples = 16\nvalue = 0.078"] ;
1319 -> 1323 ;
1324 [label="mse = 0.0\nsamples = 9\nvalue = 0.077"] ;
1323 -> 1324 ;
1325 [label="mse = 0.0\nsamples = 7\nvalue = 0.081"] ;
1323 -> 1325 ;
1326 [label="X[2] <= 7.0\nmse = 0.016\nsamples = 698\nvalue = 0.25"] ;
864 -> 1326 ;
1327 [label="X[1] <= 6.5\nmse = 0.002\nsamples = 223\nvalue = 0.161"] ;
1326 -> 1327 ;
1328 [label="X[2] <= 3.0\nmse = 0.002\nsamples = 117\nvalue = 0.139"] ;
1327 -> 1328 ;
1329 [label="X[0] <= 7.5\nmse = 0.0\nsamples = 56\nvalue = 0.097"] ;
1328 -> 1329 ;
1330 [label="X[4] <= 28.5\nmse = 0.0\nsamples = 30\nvalue = 0.09"] ;
1329 -> 1330 ;
1331 [label="X[0] <= 5.5\nmse = 0.0\nsamples = 27\nvalue = 0.088"] ;
1330 -> 1331 ;
1332 [label="X[0] <= 3.5\nmse = 0.0\nsamples = 18\nvalue = 0.094"] ;
1331 -> 1332 ;
1333 [label="X[0] <= 1.5\nmse = 0.0\nsamples = 11\nvalue = 0.089"] ;
1332 -> 1333 ;
1334 [label="mse = 0.001\nsamples = 3\nvalue = 0.08"] ;
1333 -> 1334 ;
1335 [label="mse = 0.0\nsamples = 8\nvalue = 0.092"] ;
1333 -> 1335 ;
